{"learner":{"attributes":{"scikit_learn":"{\"_estimator_type\": \"classifier\"}"},"feature_names":[],"feature_types":[],"gradient_booster":{"model":{"cats":{"enc":[],"feature_segments":[],"sorted_idx":[]},"gbtree_model_param":{"num_parallel_tree":"1","num_trees":"200"},"iteration_indptr":[0,1,2,3,4,5,6,7,8,9,10,11,12,13,14,15,16,17,18,19,20,21,22,23,24,25,26,27,28,29,30,31,32,33,34,35,36,37,38,39,40,41,42,43,44,45,46,47,48,49,50,51,52,53,54,55,56,57,58,59,60,61,62,63,64,65,66,67,68,69,70,71,72,73,74,75,76,77,78,79,80,81,82,83,84,85,86,87,88,89,90,91,92,93,94,95,96,97,98,99,100,101,102,103,104,105,106,107,108,109,110,111,112,113,114,115,116,117,118,119,120,121,122,123,124,125,126,127,128,129,130,131,132,133,134,135,136,137,138,139,140,141,142,143,144,145,146,147,148,149,150,151,152,153,154,155,156,157,158,159,160,161,162,163,164,165,166,167,168,169,170,171,172,173,174,175,176,177,178,179,180,181,182,183,184,185,186,187,188,189,190,191,192,193,194,195,196,197,198,199,200],"tree_info":[0,0,0,0,0,0,0,0,0,0,0,0,0,0,0,0,0,0,0,0,0,0,0,0,0,0,0,0,0,0,0,0,0,0,0,0,0,0,0,0,0,0,0,0,0,0,0,0,0,0,0,0,0,0,0,0,0,0,0,0,0,0,0,0,0,0,0,0,0,0,0,0,0,0,0,0,0,0,0,0,0,0,0,0,0,0,0,0,0,0,0,0,0,0,0,0,0,0,0,0,0,0,0,0,0,0,0,0,0,0,0,0,0,0,0,0,0,0,0,0,0,0,0,0,0,0,0,0,0,0,0,0,0,0,0,0,0,0,0,0,0,0,0,0,0,0,0,0,0,0,0,0,0,0,0,0,0,0,0,0,0,0,0,0,0,0,0,0,0,0,0,0,0,0,0,0,0,0,0,0,0,0,0,0,0,0,0,0,0,0,0,0,0,0,0,0,0,0,0,0],"trees":[{"base_weights":[-1.5757892E-2,-1.022191E0,8.0896485E-1,-1.1571411E0,-6.1658686E-1,1.2776138E-1,1.3590031E0,-6.476682E-2,-4.9146105E-2,-4.9227517E-2,-1.2620906E-2,4.1144174E-2,-2.0722196E-2,1.0630169E-1,3.5548102E-2],"categories":[],"categories_nodes":[],"categories_segments":[],"categories_sizes":[],"default_left":[0,0,0,0,0,0,0,0,0,0,0,0,0,0,0],"id":0,"left_children":[1,3,5,7,9,11,13,-1,-1,-1,-1,-1,-1,-1,-1],"loss_changes":[9.0975116E2,2.6306274E1,2.2554468E2,7.6171265E0,1.6552132E1,1.0218821E2,1.6410767E2,0E0,0E0,0E0,0E0,0E0,0E0,0E0,0E0],"parents":[2147483647,0,0,1,1,2,2,3,3,4,4,5,5,6,6],"right_children":[2,4,6,8,10,12,14,-1,-1,-1,-1,-1,-1,-1,-1],"split_conditions":[1E0,9.5514464E-1,1E0,1E0,1E0,-1.0738428E0,-7.4807984E-1,-6.476682E-2,-4.9146105E-2,-4.9227517E-2,-1.2620906E-2,4.1144174E-2,-2.0722196E-2,1.0630169E-1,3.5548102E-2],"split_indices":[36,1,16,37,37,0,0,0,0,0,0,0,0,0,0],"split_type":[0,0,0,0,0,0,0,0,0,0,0,0,0,0,0],"sum_hessian":[1.094052E3,4.9263535E2,6.014167E2,3.682581E2,1.24377266E2,2.6922415E2,3.3219257E2,2.017719E2,1.6648618E2,6.101894E1,6.3358322E1,1.1774901E2,1.5147513E2,1.5108524E2,1.8110733E2],"tree_param":{"num_deleted":"0","num_feature":"45","num_nodes":"15","size_leaf_vector":"1"}},{"base_weights":[-7.3470105E-3,-7.577575E-1,7.4645305E-1,-4.4772273E-1,-1.2361984E0,1.5594127E0,2.5926402E-2,2.7093092E-2,-2.7972147E-2,-6.386814E-2,-4.8265994E-2,1.0203691E-1,3.892464E-2,1.8134873E-2,-3.5246484E-2],"categories":[],"categories_nodes":[],"categories_segments":[],"categories_sizes":[],"default_left":[0,0,0,0,0,0,0,0,0,0,0,0,0,0,0],"id":1,"left_children":[1,3,5,7,9,11,13,-1,-1,-1,-1,-1,-1,-1,-1],"loss_changes":[6.2212964E2,8.120035E1,3.213545E2,3.745028E1,1.177124E0,9.5307495E1,7.209981E1,0E0,0E0,0E0,0E0,0E0,0E0,0E0,0E0],"parents":[2147483647,0,0,1,1,2,2,3,3,4,4,5,5,6,6],"right_children":[2,4,6,8,10,12,14,-1,-1,-1,-1,-1,-1,-1,-1],"split_conditions":[1E0,1E0,-6.2591875E-1,-1.2367243E0,1.2924894E0,1E0,1E0,2.7093092E-2,-2.7972147E-2,-6.386814E-2,-4.8265994E-2,1.0203691E-1,3.892464E-2,1.8134873E-2,-3.5246484E-2],"split_indices":[18,38,0,0,1,15,15,0,0,0,0,0,0,0,0],"split_type":[0,0,0,0,0,0,0,0,0,0,0,0,0,0,0],"sum_hessian":[1.0978307E3,5.501496E2,5.47681E2,3.3500113E2,2.1514848E2,2.5678735E2,2.9089368E2,3.3593105E1,3.0140802E2,1.8354082E2,3.1607664E1,1.5786992E2,9.891744E1,1.9947937E2,9.141433E1],"tree_param":{"num_deleted":"0","num_feature":"45","num_nodes":"15","size_leaf_vector":"1"}},{"base_weights":[-6.1533647E-3,-7.341289E-1,6.8818676E-1,-4.456555E-1,-5.980299E-2,1.429393E0,-9.835499E-3,2.6505435E-2,-2.7218495E-2,8.910501E-2,4.6526458E-2,-2.0834098E-2,2.7882015E-2],"categories":[],"categories_nodes":[],"categories_segments":[],"categories_sizes":[],"default_left":[0,0,0,0,0,0,0,0,0,0,0,0,0],"id":2,"left_children":[1,3,5,7,-1,9,11,-1,-1,-1,-1,-1,-1],"loss_changes":[5.551418E2,7.091171E1,2.9084958E2,3.2232437E1,0E0,4.6313538E1,6.73001E1,0E0,0E0,0E0,0E0,0E0,0E0],"parents":[2147483647,0,0,1,1,2,2,3,3,5,5,6,6],"right_children":[2,4,6,8,-1,10,12,-1,-1,-1,-1,-1,-1],"split_conditions":[1E0,1E0,-6.2591875E-1,-1.2367243E0,-5.980299E-2,-1.0738428E0,1E0,2.6505435E-2,-2.7218495E-2,8.910501E-2,4.6526458E-2,-2.0834098E-2,2.7882015E-2],"split_indices":[18,38,0,0,0,0,43,0,0,0,0,0,0],"split_type":[0,0,0,0,0,0,0,0,0,0,0,0,0],"sum_hessian":[1.0962849E3,5.3515186E2,5.611331E2,3.3063614E2,2.0451575E2,2.7164E2,2.894931E2,2.9974686E1,3.0066144E2,1.5762413E2,1.1401588E2,1.6876462E2,1.2072848E2],"tree_param":{"num_deleted":"0","num_feature":"45","num_nodes":"13","size_leaf_vector":"1"}},{"base_weights":[-3.992123E-3,-7.133212E-1,6.7608017E-1,-8.4850705E-1,-1.1507406E-1,1.2457217E0,8.149582E-2,1.3988609E-2,-4.6308424E-2,-2.7451446E-2,1.2694075E-2,3.6811806E-2,8.912092E-2,-1.7904082E-2,3.1798787E-2],"categories":[],"categories_nodes":[],"categories_segments":[],"categories_sizes":[],"default_left":[0,0,0,0,0,0,0,0,0,0,0,0,0,0,0],"id":3,"left_children":[1,3,5,7,9,11,13,-1,-1,-1,-1,-1,-1,-1,-1],"loss_changes":[5.297074E2,4.3370453E1,1.8977472E2,3.866037E1,1.6186243E1,7.695618E1,6.734466E1,0E0,0E0,0E0,0E0,0E0,0E0,0E0,0E0],"parents":[2147483647,0,0,1,1,2,2,3,3,4,4,5,5,6,6],"right_children":[2,4,6,8,10,12,14,-1,-1,-1,-1,-1,-1,-1,-1],"split_conditions":[1E0,1E0,-4.515971E-1,-9.8965055E-1,1E0,1.9736524E-1,1E0,1.3988609E-2,-4.6308424E-2,-2.7451446E-2,1.2694075E-2,3.6811806E-2,8.912092E-2,-1.7904082E-2,3.1798787E-2],"split_indices":[27,43,2,2,18,1,43,0,0,0,0,0,0,0,0],"split_type":[0,0,0,0,0,0,0,0,0,0,0,0,0,0,0],"sum_hessian":[1.0960784E3,5.3647516E2,5.596033E2,4.3725122E2,9.9223915E1,2.8523694E2,2.7436633E2,2.799099E1,4.0926022E2,4.5371365E1,5.385255E1,1.4754471E2,1.3769221E2,1.5323766E2,1.21128685E2],"tree_param":{"num_deleted":"0","num_feature":"45","num_nodes":"15","size_leaf_vector":"1"}},{"base_weights":[1.785094E-2,-9.442401E-1,7.089895E-1,-1.0821611E0,-5.3343135E-1,8.80695E-2,1.182878E0,-6.0659893E-2,-4.6268016E-2,-7.105596E-3,-4.3476813E-2,3.5809737E-2,-2.0973325E-2,8.420626E-2,3.3165555E-2],"categories":[],"categories_nodes":[],"categories_segments":[],"categories_sizes":[],"default_left":[0,0,0,0,0,0,0,0,0,0,0,0,0,0,0],"id":4,"left_children":[1,3,5,7,9,11,13,-1,-1,-1,-1,-1,-1,-1,-1],"loss_changes":[7.265366E2,2.5304016E1,1.8699033E2,5.88385E0,1.5236393E1,8.838538E1,9.2778015E1,0E0,0E0,0E0,0E0,0E0,0E0,0E0,0E0],"parents":[2147483647,0,0,1,1,2,2,3,3,4,4,5,5,6,6],"right_children":[2,4,6,8,10,12,14,-1,-1,-1,-1,-1,-1,-1,-1],"split_conditions":[1E0,9.5514464E-1,1E0,1E0,1.8998785E0,-1.0738428E0,-6.6663915E-1,-6.0659893E-2,-4.6268016E-2,-7.105596E-3,-4.3476813E-2,3.5809737E-2,-2.0973325E-2,8.420626E-2,3.3165555E-2],"split_indices":[36,1,16,37,2,0,0,0,0,0,0,0,0,0,0],"split_type":[0,0,0,0,0,0,0,0,0,0,0,0,0,0,0],"sum_hessian":[1.090631E3,4.5578906E2,6.3484186E2,3.400049E2,1.1578418E2,2.7530493E2,3.595369E2,1.81549E2,1.584559E2,5.4155247E1,6.1628933E1,1.2285222E2,1.5245271E2,1.8185379E2,1.776831E2],"tree_param":{"num_deleted":"0","num_feature":"45","num_nodes":"15","size_leaf_vector":"1"}},{"base_weights":[-1.19759245E-2,-6.7156744E-1,5.891695E-1,-8.313818E-1,-2.201939E-1,1.0664676E0,8.3024405E-2,6.4536273E-3,-4.7878213E-2,5.803601E-2,-2.46048E-2,2.4931438E-2,7.299624E-2,-3.767885E-2,1.862958E-2],"categories":[],"categories_nodes":[],"categories_segments":[],"categories_sizes":[],"default_left":[0,0,0,0,0,0,0,0,0,0,0,0,0,0,0],"id":5,"left_children":[1,3,5,7,9,11,13,-1,-1,-1,-1,-1,-1,-1,-1],"loss_changes":[4.3313452E2,3.7389236E1,1.3797902E2,4.6697937E1,5.2219063E1,6.496976E1,6.7738205E1,0E0,0E0,0E0,0E0,0E0,0E0,0E0,0E0],"parents":[2147483647,0,0,1,1,2,2,3,3,4,4,5,5,6,6],"right_children":[2,4,6,8,10,12,14,-1,-1,-1,-1,-1,-1,-1,-1],"split_conditions":[1E0,1E0,-4.515971E-1,-9.777968E-1,-2.8259864E-1,1E0,1E0,6.4536273E-3,-4.7878213E-2,5.803601E-2,-2.46048E-2,2.4931438E-2,7.299624E-2,-3.767885E-2,1.862958E-2],"split_indices":[27,16,2,2,2,16,16,0,0,0,0,0,0,0,0],"split_type":[0,0,0,0,0,0,0,0,0,0,0,0,0,0,0],"sum_hessian":[1.0903682E3,5.1985425E2,5.70514E2,3.833002E2,1.3655402E2,2.9305457E2,2.774594E2,4.450694E1,3.3879327E2,2.1926516E1,1.14627495E2,1.2087484E2,1.7217973E2,7.093E1,2.065294E2],"tree_param":{"num_deleted":"0","num_feature":"45","num_nodes":"15","size_leaf_vector":"1"}},{"base_weights":[-1.4565217E-2,-9.138527E-1,5.940186E-1,-1.0482359E0,-5.3078693E-1,5.8011156E-2,9.9436885E-1,-5.8675986E-2,-4.487863E-2,-4.0966716E-2,-1.2335392E-2,2.5474478E-2,-1.8162096E-2,6.107622E-2,1.2158849E-2],"categories":[],"categories_nodes":[],"categories_segments":[],"categories_sizes":[],"default_left":[0,0,0,0,0,0,0,0,0,0,0,0,0,0,0],"id":6,"left_children":[1,3,5,7,9,11,13,-1,-1,-1,-1,-1,-1,-1,-1],"loss_changes":[5.919706E2,2.1916016E1,1.3837424E2,5.027466E0,9.257107E0,5.2844063E1,6.270514E1,0E0,0E0,0E0,0E0,0E0,0E0,0E0,0E0],"parents":[2147483647,0,0,1,1,2,2,3,3,4,4,5,5,6,6],"right_children":[2,4,6,8,10,12,14,-1,-1,-1,-1,-1,-1,-1,-1],"split_conditions":[1E0,9.5514464E-1,1E0,1E0,1E0,-9.04158E-1,3.5469943E-1,-5.8675986E-2,-4.487863E-2,-4.0966716E-2,-1.2335392E-2,2.5474478E-2,-1.8162096E-2,6.107622E-2,1.2158849E-2],"split_indices":[36,1,16,37,37,2,2,0,0,0,0,0,0,0,0],"split_type":[0,0,0,0,0,0,0,0,0,0,0,0,0,0,0],"sum_hessian":[1.0796443E3,4.3554697E2,6.4409735E2,3.2114853E2,1.1439844E2,2.758806E2,3.6821677E2,1.7163585E2,1.4951266E2,5.581815E1,5.8580288E1,1.330619E2,1.428187E2,2.8224237E2,8.597437E1],"tree_param":{"num_deleted":"0","num_feature":"45","num_nodes":"15","size_leaf_vector":"1"}},{"base_weights":[-4.5185382E-3,-6.498051E-1,5.391004E-1,-2.2610942E-1,-8.7653285E-1,1.1835723E0,1.0267888E-1,-1.8017583E-2,8.3819084E-2,-5.230683E-2,-2.4248458E-2,7.1946874E-2,3.7145384E-2,1.9214196E-2,-2.8278982E-2],"categories":[],"categories_nodes":[],"categories_segments":[],"categories_sizes":[],"default_left":[0,0,0,0,0,0,0,0,0,0,0,0,0,0,0],"id":7,"left_children":[1,3,5,7,9,11,13,-1,-1,-1,-1,-1,-1,-1,-1],"loss_changes":[3.8182474E2,4.7611954E1,1.6604195E2,4.5256203E1,2.1000229E1,2.5762543E1,6.671088E1,0E0,0E0,0E0,0E0,0E0,0E0,0E0,0E0],"parents":[2147483647,0,0,1,1,2,2,3,3,4,4,5,5,6,6],"right_children":[2,4,6,8,10,12,14,-1,-1,-1,-1,-1,-1,-1,-1],"split_conditions":[1E0,-3.815966E-1,-8.702409E-1,8.903346E-1,1E0,1E0,1E0,-1.8017583E-2,8.3819084E-2,-5.230683E-2,-2.4248458E-2,7.1946874E-2,3.7145384E-2,1.9214196E-2,-2.8278982E-2],"split_indices":[18,0,0,1,16,15,15,0,0,0,0,0,0,0,0],"split_type":[0,0,0,0,0,0,0,0,0,0,0,0,0,0,0],"sum_hessian":[1.0864723E3,4.9669275E2,5.897796E2,1.7383575E2,3.22857E2,2.3743819E2,3.523414E2,1.631353E2,1.0700449E1,2.2411226E2,9.874474E1,1.4889067E2,8.854751E1,2.4818208E2,1.0415932E2],"tree_param":{"num_deleted":"0","num_feature":"45","num_nodes":"15","size_leaf_vector":"1"}},{"base_weights":[-1.8924162E-3,-6.260278E-1,5.1194507E-1,-1.9669546E-1,-8.620703E-1,1.1909697E0,1.586172E-1,1.5845727E-2,-2.6813481E-2,-3.6808036E-2,-5.5997353E-2,7.1458034E-2,3.9353322E-2,-1.19848875E-2,2.995496E-2],"categories":[],"categories_nodes":[],"categories_segments":[],"categories_sizes":[],"default_left":[0,0,0,0,0,0,0,0,0,0,0,0,0,0,0],"id":8,"left_children":[1,3,5,7,9,11,13,-1,-1,-1,-1,-1,-1,-1,-1],"loss_changes":[3.461675E2,4.922261E1,1.4184552E2,3.0551401E1,9.37706E0,1.8353546E1,6.866515E1,0E0,0E0,0E0,0E0,0E0,0E0,0E0,0E0],"parents":[2147483647,0,0,1,1,2,2,3,3,4,4,5,5,6,6],"right_children":[2,4,6,8,10,12,14,-1,-1,-1,-1,-1,-1,-1,-1],"split_conditions":[1E0,-3.815966E-1,-9.92402E-1,1E0,1E0,1E0,1E0,1.5845727E-2,-2.6813481E-2,-3.6808036E-2,-5.5997353E-2,7.1458034E-2,3.9353322E-2,-1.19848875E-2,2.995496E-2],"split_indices":[18,0,0,19,19,15,43,0,0,0,0,0,0,0,0],"split_type":[0,0,0,0,0,0,0,0,0,0,0,0,0,0,0],"sum_hessian":[1.077399E3,4.863875E2,5.910115E2,1.7319691E2,3.131906E2,2.0146529E2,3.895462E2,6.896032E1,1.04236595E2,2.1303154E2,1.00159065E2,1.2513308E2,7.63322E1,2.048039E2,1.8474231E2],"tree_param":{"num_deleted":"0","num_feature":"45","num_nodes":"15","size_leaf_vector":"1"}},{"base_weights":[-1.1986668E-2,-8.4806603E-1,5.303703E-1,-9.931915E-1,-4.5768338E-1,8.1436984E-2,8.615616E-1,-5.701657E-2,-4.1144665E-2,-4.066973E-2,-7.3361457E-3,-1.2780403E-2,2.0454874E-2,2.8309688E-2,5.1919747E-2],"categories":[],"categories_nodes":[],"categories_segments":[],"categories_sizes":[],"default_left":[0,0,0,0,0,0,0,0,0,0,0,0,0,0,0],"id":9,"left_children":[1,3,5,7,9,11,13,-1,-1,-1,-1,-1,-1,-1,-1],"loss_changes":[4.8620227E2,2.3446198E1,9.662726E1,6.7464294E0,1.2731926E1,3.0718195E1,1.8954468E1,0E0,0E0,0E0,0E0,0E0,0E0,0E0,0E0],"parents":[2147483647,0,0,1,1,2,2,3,3,4,4,5,5,6,6],"right_children":[2,4,6,8,10,12,14,-1,-1,-1,-1,-1,-1,-1,-1],"split_conditions":[1E0,9.5514464E-1,1E0,1E0,1E0,1E0,1E0,-5.701657E-2,-4.1144665E-2,-4.066973E-2,-7.3361457E-3,-1.2780403E-2,2.0454874E-2,2.8309688E-2,5.1919747E-2],"split_indices":[36,1,16,37,37,21,43,0,0,0,0,0,0,0,0],"split_type":[0,0,0,0,0,0,0,0,0,0,0,0,0,0,0],"sum_hessian":[1.070229E3,4.208685E2,6.493605E2,3.056853E2,1.151832E2,2.7620612E2,3.731544E2,1.6093726E2,1.4474805E2,5.297208E1,6.2211113E1,1.3626166E2,1.3994444E2,1.4131511E2,2.3183928E2],"tree_param":{"num_deleted":"0","num_feature":"45","num_nodes":"15","size_leaf_vector":"1"}},{"base_weights":[1.4415739E-2,-8.1848884E-1,5.151948E-1,-1.0513885E0,-5.8250564E-1,8.226119E-2,8.250777E-1,-5.530225E-2,-3.755738E-2,-3.8845282E-2,3.4414213E-3,3.28497E-2,-1.2774557E-2,8.419781E-2,3.5236426E-2],"categories":[],"categories_nodes":[],"categories_segments":[],"categories_sizes":[],"default_left":[0,0,0,0,0,0,0,0,0,0,0,0,0,0,0],"id":10,"left_children":[1,3,5,7,9,11,13,-1,-1,-1,-1,-1,-1,-1,-1],"loss_changes":[4.4004758E2,2.1160065E1,8.8323105E1,2.4206238E0,2.525254E1,5.373777E1,3.8493896E1,0E0,0E0,0E0,0E0,0E0,0E0,0E0,0E0],"parents":[2147483647,0,0,1,1,2,2,3,3,4,4,5,5,6,6],"right_children":[2,4,6,8,10,12,14,-1,-1,-1,-1,-1,-1,-1,-1],"split_conditions":[1E0,1E0,1E0,1.3091074E0,1.1130154E0,-1.1552835E0,-9.5510477E-1,-5.530225E-2,-3.755738E-2,-3.8845282E-2,3.4414213E-3,3.28497E-2,-1.2774557E-2,8.419781E-2,3.5236426E-2],"split_indices":[36,37,16,1,1,0,2,0,0,0,0,0,0,0,0],"split_type":[0,0,0,0,0,0,0,0,0,0,0,0,0,0,0],"sum_hessian":[1.053003E3,3.9514926E2,6.578537E2,1.9713493E2,1.9801434E2,2.7496664E2,3.8288705E2,1.6450436E2,3.2630573E1,1.5235039E2,4.566395E1,1.01427826E2,1.7353883E2,4.5460873E1,3.3742618E2],"tree_param":{"num_deleted":"0","num_feature":"45","num_nodes":"15","size_leaf_vector":"1"}},{"base_weights":[-2.81896E-3,-8.0244094E-1,4.6898517E-1,-1.0250877E0,-5.8006626E-1,3.3192463E-2,7.6685697E-1,-5.6086775E-2,-4.4161048E-2,-4.5038905E-2,-1.0209303E-2,2.5336107E-2,-1.6660979E-2,4.3496482E-2,-1.1978923E-2],"categories":[],"categories_nodes":[],"categories_segments":[],"categories_sizes":[],"default_left":[0,0,0,0,0,0,0,0,0,0,0,0,0,0,0],"id":11,"left_children":[1,3,5,7,9,11,13,-1,-1,-1,-1,-1,-1,-1,-1],"loss_changes":[3.9646036E2,1.8712784E1,8.5768875E1,1.6631622E0,2.361293E1,4.6908615E1,4.0928726E1,0E0,0E0,0E0,0E0,0E0,0E0,0E0,0E0],"parents":[2147483647,0,0,1,1,2,2,3,3,4,4,5,5,6,6],"right_children":[2,4,6,8,10,12,14,-1,-1,-1,-1,-1,-1,-1,-1],"split_conditions":[1E0,1E0,1E0,9.707182E-1,1E0,-1.1145631E0,7.99294E-1,-5.6086775E-2,-4.4161048E-2,-4.5038905E-2,-1.0209303E-2,2.5336107E-2,-1.6660979E-2,4.3496482E-2,-1.1978923E-2],"split_indices":[36,37,16,2,35,0,0,0,0,0,0,0,0,0,0],"split_type":[0,0,0,0,0,0,0,0,0,0,0,0,0,0,0],"sum_hessian":[1.0488828E3,3.8896213E2,6.5992065E2,1.925584E2,1.9640373E2,2.6838266E2,3.9153802E2,1.1042416E2,8.213424E1,1.0522569E2,9.117804E1,1.1691088E2,1.5147177E2,3.552874E2,3.62506E1],"tree_param":{"num_deleted":"0","num_feature":"45","num_nodes":"15","size_leaf_vector":"1"}},{"base_weights":[-4.3355683E-3,2.1154088E-1,-9.809928E-1,4.352436E-1,-5.6500953E-1,-1.0244316E0,-6.0185176E-1,5.3276494E-3,3.7970282E-2,-4.690708E-2,-8.150152E-3,-5.453318E-2,-3.6836535E-2,-1.228392E-2,-4.2328123E-2],"categories":[],"categories_nodes":[],"categories_segments":[],"categories_sizes":[],"default_left":[0,0,0,0,0,0,0,0,0,0,0,0,0,0,0],"id":12,"left_children":[1,3,5,7,9,11,13,-1,-1,-1,-1,-1,-1,-1,-1],"loss_changes":[2.2198363E2,1.5003987E2,2.5224152E0,7.13077E1,2.8839813E1,2.4277496E0,1.7109275E0,0E0,0E0,0E0,0E0,0E0,0E0,0E0,0E0],"parents":[2147483647,0,0,1,1,2,2,3,3,4,4,5,5,6,6],"right_children":[2,4,6,8,10,12,14,-1,-1,-1,-1,-1,-1,-1,-1],"split_conditions":[1E0,1E0,1E0,1E0,1E0,1.8289548E0,1.4921057E0,5.3276494E-3,3.7970282E-2,-4.690708E-2,-8.150152E-3,-5.453318E-2,-3.6836535E-2,-1.228392E-2,-4.2328123E-2],"split_indices":[38,37,43,43,35,2,2,0,0,0,0,0,0,0,0],"split_type":[0,0,0,0,0,0,0,0,0,0,0,0,0,0,0],"sum_hessian":[1.0508828E3,8.612901E2,1.8959274E2,6.6900714E2,1.9228296E2,1.6857664E2,2.101609E1,3.3284296E2,3.3616415E2,9.903116E1,9.32518E1,1.34762E2,3.3814663E1,9.374939E0,1.1641151E1],"tree_param":{"num_deleted":"0","num_feature":"45","num_nodes":"15","size_leaf_vector":"1"}},{"base_weights":[-3.9268457E-3,-7.7969354E-1,4.3047807E-1,-8.8183236E-1,-2.8681365E-1,-1.1084074E-1,6.551952E-1,-4.942442E-2,-3.0405685E-2,7.4543282E-3,-3.3296853E-2,-1.1637708E-2,2.6249433E-2,6.508085E-2,2.501361E-2],"categories":[],"categories_nodes":[],"categories_segments":[],"categories_sizes":[],"default_left":[0,0,0,0,0,0,0,0,0,0,0,0,0,0,0],"id":13,"left_children":[1,3,5,7,9,11,13,-1,-1,-1,-1,-1,-1,-1,-1],"loss_changes":[3.5265637E2,1.8657608E1,8.1675026E1,8.468689E0,1.1000332E1,1.5442816E1,4.683667E1,0E0,0E0,0E0,0E0,0E0,0E0,0E0,0E0],"parents":[2147483647,0,0,1,1,2,2,3,3,4,4,5,5,6,6],"right_children":[2,4,6,8,10,12,14,-1,-1,-1,-1,-1,-1,-1,-1],"split_conditions":[1E0,1.2492827E0,1E0,1E0,1E0,8.903346E-1,-9.616386E-1,-4.942442E-2,-3.0405685E-2,7.4543282E-3,-3.3296853E-2,-1.1637708E-2,2.6249433E-2,6.508085E-2,2.501361E-2],"split_indices":[36,1,18,18,38,1,2,0,0,0,0,0,0,0,0],"split_type":[0,0,0,0,0,0,0,0,0,0,0,0,0,0,0],"sum_hessian":[1.0444718E3,3.7463974E2,6.6983203E2,3.096767E2,6.496303E1,1.966443E2,4.7318774E2,2.2096509E2,8.871162E1,3.0501009E1,3.446202E1,1.655381E2,3.1106205E1,9.00498E1,3.8313794E2],"tree_param":{"num_deleted":"0","num_feature":"45","num_nodes":"15","size_leaf_vector":"1"}},{"base_weights":[-9.999485E-4,-7.5475603E-1,4.0901878E-1,-9.16589E-1,-3.3499637E-1,8.424817E-3,6.848736E-1,-5.0041493E-2,-3.241348E-2,-1.229336E-2,-3.1585142E-2,2.5080264E-2,-6.834738E-3,1.0222048E-2,3.8543247E-2],"categories":[],"categories_nodes":[],"categories_segments":[],"categories_sizes":[],"default_left":[0,0,0,0,0,0,0,0,0,0,0,0,0,0,0],"id":14,"left_children":[1,3,5,7,9,11,13,-1,-1,-1,-1,-1,-1,-1,-1],"loss_changes":[3.227588E2,2.46875E1,7.47408E1,5.340683E0,2.5938892E0,1.9882698E1,1.6390594E1,0E0,0E0,0E0,0E0,0E0,0E0,0E0,0E0],"parents":[2147483647,0,0,1,1,2,2,3,3,4,4,5,5,6,6],"right_children":[2,4,6,8,10,12,14,-1,-1,-1,-1,-1,-1,-1,-1],"split_conditions":[1E0,9.6677727E-1,1E0,1E0,1.5184939E0,1E0,1E0,-5.0041493E-2,-3.241348E-2,-1.229336E-2,-3.1585142E-2,2.5080264E-2,-6.834738E-3,1.0222048E-2,3.8543247E-2],"split_indices":[36,1,16,18,1,11,18,0,0,0,0,0,0,0,0],"split_type":[0,0,0,0,0,0,0,0,0,0,0,0,0,0,0],"sum_hessian":[1.042345E3,3.669406E2,6.7540436E2,2.6398206E2,1.0295856E2,2.7584912E2,3.9955524E2,1.9882848E2,6.515358E1,8.058106E1,2.2377497E1,6.2156696E1,2.1369243E2,6.117102E1,3.3838422E2],"tree_param":{"num_deleted":"0","num_feature":"45","num_nodes":"15","size_leaf_vector":"1"}},{"base_weights":[1.824951E-2,-7.1435285E-1,4.031617E-1,-8.4645885E-1,-2.2622007E-1,-6.8895884E-2,5.9197533E-1,-3.4179106E-2,-5.0259124E-2,1.8809378E-2,-3.1155545E-2,2.9211733E-2,-8.832443E-3,5.9470672E-2,2.2529982E-2],"categories":[],"categories_nodes":[],"categories_segments":[],"categories_sizes":[],"default_left":[0,0,0,0,0,0,0,0,0,0,0,0,0,0,0],"id":15,"left_children":[1,3,5,7,9,11,13,-1,-1,-1,-1,-1,-1,-1,-1],"loss_changes":[2.8944522E2,2.2607529E1,6.001442E1,6.496887E0,1.85652E1,1.369562E1,4.0068344E1,0E0,0E0,0E0,0E0,0E0,0E0,0E0,0E0],"parents":[2147483647,0,0,1,1,2,2,3,3,4,4,5,5,6,6],"right_children":[2,4,6,8,10,12,14,-1,-1,-1,-1,-1,-1,-1,-1],"split_conditions":[1E0,1.1695164E0,1E0,1E0,1.8998785E0,-9.96648E-1,-9.616386E-1,-3.4179106E-2,-5.0259124E-2,1.8809378E-2,-3.1155545E-2,2.9211733E-2,-8.832443E-3,5.9470672E-2,2.2529982E-2],"split_indices":[36,1,27,38,2,2,2,0,0,0,0,0,0,0,0],"split_type":[0,0,0,0,0,0,0,0,0,0,0,0,0,0,0],"sum_hessian":[1.0244254E3,3.5255414E2,6.718713E2,2.7688516E2,7.566899E1,1.9213785E2,4.7973343E2,1.3927391E2,1.3761125E2,3.0074131E1,4.559486E1,2.6583494E1,1.6555435E2,9.038083E1,3.893526E2],"tree_param":{"num_deleted":"0","num_feature":"45","num_nodes":"15","size_leaf_vector":"1"}},{"base_weights":[4.046398E-3,-7.2164375E-1,3.7532467E-1,-9.543045E-1,-4.6518946E-1,-9.421396E-3,6.467068E-1,-5.106737E-2,-1.8893942E-2,-9.278304E-3,-2.8106162E-2,1.8847866E-2,-1.7151412E-2,4.05195E-2,8.605775E-3],"categories":[],"categories_nodes":[],"categories_segments":[],"categories_sizes":[],"default_left":[0,0,0,0,0,0,0,0,0,0,0,0,0,0,0],"id":16,"left_children":[1,3,5,7,9,11,13,-1,-1,-1,-1,-1,-1,-1,-1],"loss_changes":[2.7614517E2,2.0254044E1,7.079982E1,6.6062317E0,4.4211235E0,3.6403988E1,3.0746689E1,0E0,0E0,0E0,0E0,0E0,0E0,0E0,0E0],"parents":[2147483647,0,0,1,1,2,2,3,3,4,4,5,5,6,6],"right_children":[2,4,6,8,10,12,14,-1,-1,-1,-1,-1,-1,-1,-1],"split_conditions":[1E0,1E0,1E0,1E0,1E0,-9.186385E-1,2.317694E-1,-5.106737E-2,-1.8893942E-2,-9.278304E-3,-2.8106162E-2,1.8847866E-2,-1.7151412E-2,4.05195E-2,8.605775E-3],"split_indices":[36,35,16,43,26,2,2,0,0,0,0,0,0,0,0],"split_type":[0,0,0,0,0,0,0,0,0,0,0,0,0,0,0],"sum_hessian":[1.02290704E3,3.4589218E2,6.770149E2,1.7993246E2,1.6595972E2,2.8042035E2,3.965945E2,1.6049388E2,1.943858E1,4.347177E1,1.2248795E2,1.2987315E2,1.505472E2,2.943632E2,1.0223131E2],"tree_param":{"num_deleted":"0","num_feature":"45","num_nodes":"15","size_leaf_vector":"1"}},{"base_weights":[-9.9750925E-3,-6.7427886E-1,3.2684943E-1,-9.349898E-1,-4.3000445E-1,-1.2403929E-1,5.1426584E-1,-5.11745E-2,-3.0833859E-2,-1.4099489E-2,-4.8083477E-2,2.1759426E-2,-1.0751636E-2,3.356763E-2,3.1918732E-3],"categories":[],"categories_nodes":[],"categories_segments":[],"categories_sizes":[],"default_left":[0,0,0,0,0,0,0,0,0,0,0,0,0,0,0],"id":17,"left_children":[1,3,5,7,9,11,13,-1,-1,-1,-1,-1,-1,-1,-1],"loss_changes":[2.251389E2,2.1156784E1,5.6485603E1,3.9578705E0,1.362796E1,1.0110386E1,3.334246E1,0E0,0E0,0E0,0E0,0E0,0E0,0E0,0E0],"parents":[2147483647,0,0,1,1,2,2,3,3,4,4,5,5,6,6],"right_children":[2,4,6,8,10,12,14,-1,-1,-1,-1,-1,-1,-1,-1],"split_conditions":[1E0,1E0,1E0,1.8289548E0,1E0,-9.96648E-1,1E0,-5.11745E-2,-3.0833859E-2,-1.4099489E-2,-4.8083477E-2,2.1759426E-2,-1.0751636E-2,3.356763E-2,3.1918732E-3],"split_indices":[36,37,18,2,17,2,39,0,0,0,0,0,0,0,0],"split_type":[0,0,0,0,0,0,0,0,0,0,0,0,0,0,0],"sum_hessian":[1.00420544E3,3.3752277E2,6.666827E2,1.6190065E2,1.756221E2,1.958478E2,4.708349E2,1.24946526E2,3.695412E1,1.3857379E2,3.704832E1,2.6878029E1,1.6896976E2,3.4872626E2,1.22108635E2],"tree_param":{"num_deleted":"0","num_feature":"45","num_nodes":"15","size_leaf_vector":"1"}},{"base_weights":[7.631928E-4,-6.718082E-1,3.2651657E-1,-9.128142E-1,-4.442042E-1,-5.359585E-3,5.4988223E-1,-5.0604142E-2,-3.662953E-2,-1.4698609E-2,-4.777575E-2,2.8173087E-2,-9.88818E-3,4.874169E-2,1.5619685E-2],"categories":[],"categories_nodes":[],"categories_segments":[],"categories_sizes":[],"default_left":[0,0,0,0,0,0,0,0,0,0,0,0,0,0,0],"id":18,"left_children":[1,3,5,7,9,11,13,-1,-1,-1,-1,-1,-1,-1,-1],"loss_changes":[2.2248894E2,1.7770874E1,5.071827E1,2.120926E0,1.2959427E1,3.0340921E1,4.0965317E1,0E0,0E0,0E0,0E0,0E0,0E0,0E0,0E0],"parents":[2147483647,0,0,1,1,2,2,3,3,4,4,5,5,6,6],"right_children":[2,4,6,8,10,12,14,-1,-1,-1,-1,-1,-1,-1,-1],"split_conditions":[1E0,1.7077649E-1,1.608057E-1,-8.013748E-1,1.5729809E0,-1.2367243E0,-9.516817E-1,-5.0604142E-2,-3.662953E-2,-1.4698609E-2,-4.777575E-2,2.8173087E-2,-9.88818E-3,4.874169E-2,1.5619685E-2],"split_indices":[36,1,1,1,0,0,0,0,0,0,0,0,0,0,0],"split_type":[0,0,0,0,0,0,0,0,0,0,0,0,0,0,0],"sum_hessian":[1.0135016E3,3.3035895E2,6.8314264E2,1.589932E2,1.7136574E2,2.752109E2,4.0793173E2,9.9546486E1,5.9446712E1,1.3366698E2,3.7698757E1,6.907366E1,2.0613722E2,1.4513275E2,2.6279898E2],"tree_param":{"num_deleted":"0","num_feature":"45","num_nodes":"15","size_leaf_vector":"1"}},{"base_weights":[-3.4792956E-3,-4.8883596E-1,3.3450627E-1,-3.0048355E-1,-9.368532E-1,4.0181172E-1,-7.3988396E-1,-2.1236148E-2,1.2564867E-2,-4.9725633E-2,-2.6476527E-2,2.6173348E-2,2.6776155E-3,-4.7415186E-2,-2.3791717E-2],"categories":[],"categories_nodes":[],"categories_segments":[],"categories_sizes":[],"default_left":[0,0,0,0,0,0,0,0,0,0,0,0,0,0,0],"id":19,"left_children":[1,3,5,7,9,11,13,-1,-1,-1,-1,-1,-1,-1,-1],"loss_changes":[1.6431412E2,3.441584E1,4.299582E1,2.0052225E1,2.3205338E0,2.3541573E1,1.4838219E0,0E0,0E0,0E0,0E0,0E0,0E0,0E0,0E0],"parents":[2147483647,0,0,1,1,2,2,3,3,4,4,5,5,6,6],"right_children":[2,4,6,8,10,12,14,-1,-1,-1,-1,-1,-1,-1,-1],"split_conditions":[1E0,1E0,1E0,9.6677727E-1,1.435404E0,1E0,9.5514464E-1,-2.1236148E-2,1.2564867E-2,-4.9725633E-2,-2.6476527E-2,2.6173348E-2,2.6776155E-3,-4.7415186E-2,-2.3791717E-2],"split_indices":[18,38,38,1,1,39,1,0,0,0,0,0,0,0,0],"split_type":[0,0,0,0,0,0,0,0,0,0,0,0,0,0,0],"sum_hessian":[9.996525E2,4.101785E2,5.89474E2,2.8995026E2,1.2022824E2,5.553124E2,3.4161667E1,2.3685098E2,5.3099274E1,1.040567E2,1.6171545E1,4.1117584E2,1.4413652E2,1.7643726E1,1.651794E1],"tree_param":{"num_deleted":"0","num_feature":"45","num_nodes":"15","size_leaf_vector":"1"}},{"base_weights":[-2.326217E-3,-4.7418436E-1,3.1684312E-1,-2.8918847E-1,-9.2350125E-1,7.0940185E-1,3.444047E-2,-4.231317E-3,-3.409257E-2,-4.8660666E-2,-3.1097967E-2,5.2697357E-2,2.7647335E-2,-1.0724494E-2,1.4414603E-2],"categories":[],"categories_nodes":[],"categories_segments":[],"categories_sizes":[],"default_left":[0,0,0,0,0,0,0,0,0,0,0,0,0,0,0],"id":20,"left_children":[1,3,5,7,9,11,13,-1,-1,-1,-1,-1,-1,-1,-1],"loss_changes":[1.507165E2,3.3296677E1,6.615526E1,2.303396E1,1.1531906E0,1.2878563E1,2.2068151E1,0E0,0E0,0E0,0E0,0E0,0E0,0E0,0E0],"parents":[2147483647,0,0,1,1,2,2,3,3,4,4,5,5,6,6],"right_children":[2,4,6,8,10,12,14,-1,-1,-1,-1,-1,-1,-1,-1],"split_conditions":[1E0,1E0,-8.702409E-1,1E0,1E0,-1.2367243E0,1E0,-4.231317E-3,-3.409257E-2,-4.8660666E-2,-3.1097967E-2,5.2697357E-2,2.7647335E-2,-1.0724494E-2,1.4414603E-2],"split_indices":[18,38,0,37,21,0,43,0,0,0,0,0,0,0,0],"split_type":[0,0,0,0,0,0,0,0,0,0,0,0,0,0,0],"sum_hessian":[9.987584E2,4.0279013E2,5.9596826E2,2.8648157E2,1.1630857E2,2.4871945E2,3.4724884E2,1.891548E2,9.732676E1,9.793551E1,1.8373062E1,7.588009E1,1.7283937E2,1.7540215E2,1.718467E2],"tree_param":{"num_deleted":"0","num_feature":"45","num_nodes":"15","size_leaf_vector":"1"}},{"base_weights":[-1.3299654E-2,1.4202341E-1,-9.064621E-1,-2.5780398E-1,3.4577352E-1,-5.21697E-2,-5.2732396E-1,-4.571743E-3,-2.9856814E-2,3.6995027E-2,5.9704557E-3,-1.2672587E-2,-5.1239353E-2],"categories":[],"categories_nodes":[],"categories_segments":[],"categories_sizes":[],"default_left":[0,0,0,0,0,0,0,0,0,0,0,0,0],"id":21,"left_children":[1,3,5,7,9,-1,11,-1,-1,-1,-1,-1,-1],"loss_changes":[1.3705104E2,6.865258E1,7.0475464E0,1.6017023E1,4.9689774E1,0E0,5.306117E0,0E0,0E0,0E0,0E0,0E0,0E0],"parents":[2147483647,0,0,1,1,2,2,3,3,4,4,6,6],"right_children":[2,4,6,8,10,-1,12,-1,-1,-1,-1,-1,-1],"split_conditions":[1E0,1E0,9.5514464E-1,1E0,-9.92402E-1,-5.21697E-2,1.6137012E0,-4.571743E-3,-2.9856814E-2,3.6995027E-2,5.9704557E-3,-1.2672587E-2,-5.1239353E-2],"split_indices":[38,18,1,37,0,0,0,0,0,0,0,0,0],"split_type":[0,0,0,0,0,0,0,0,0,0,0,0,0],"sum_hessian":[9.8597864E2,8.406318E2,1.4534686E2,2.8368317E2,5.569486E2,1.05493996E2,3.985288E1,1.9120694E2,9.247622E1,2.0235544E2,3.545932E2,2.6676144E1,1.3176735E1],"tree_param":{"num_deleted":"0","num_feature":"45","num_nodes":"13","size_leaf_vector":"1"}},{"base_weights":[-1.7320449E-2,-4.201713E-1,2.5367892E-1,-5.5446756E-1,4.606002E-2,5.336127E-1,-4.5305517E-2,1.8974167E-3,-3.3115942E-2,2.1857508E-2,-1.40973795E-2,1.6187547E-2,4.4365026E-2,-2.4605228E-2,5.193812E-3],"categories":[],"categories_nodes":[],"categories_segments":[],"categories_sizes":[],"default_left":[0,0,0,0,0,0,0,0,0,0,0,0,0,0,0],"id":22,"left_children":[1,3,5,7,9,11,13,-1,-1,-1,-1,-1,-1,-1,-1],"loss_changes":[1.0737022E2,2.4789711E1,4.923783E1,1.9649132E1,1.1587889E1,2.2259201E1,1.9064236E1,0E0,0E0,0E0,0E0,0E0,0E0,0E0,0E0],"parents":[2147483647,0,0,1,1,2,2,3,3,4,4,5,5,6,6],"right_children":[2,4,6,8,10,12,14,-1,-1,-1,-1,-1,-1,-1,-1],"split_conditions":[1E0,1E0,-6.2591875E-1,-1.1552835E0,-3.4087622E-1,4.5494378E-1,1E0,1.8974167E-3,-3.3115942E-2,2.1857508E-2,-1.40973795E-2,1.6187547E-2,4.4365026E-2,-2.4605228E-2,5.193812E-3],"split_indices":[18,43,0,0,0,1,40,0,0,0,0,0,0,0,0],"split_type":[0,0,0,0,0,0,0,0,0,0,0,0,0,0,0],"sum_hessian":[9.815167E2,3.945109E2,5.8700586E2,3.061393E2,8.837158E1,3.02756E2,2.8424982E2,4.7249725E1,2.588896E2,4.0157837E1,4.821375E1,1.9121394E2,1.1154207E2,7.057604E1,2.1367378E2],"tree_param":{"num_deleted":"0","num_feature":"45","num_nodes":"15","size_leaf_vector":"1"}},{"base_weights":[1.7476979E-3,-5.9826493E-1,2.6279673E-1,-7.2753763E-1,-8.744295E-2,-2.026422E-1,4.3873495E-1,-2.6030306E-2,-4.8442457E-2,2.3911966E-2,-2.2424696E-2,-8.632219E-4,-2.577125E-2,4.4511117E-2,1.4409266E-2],"categories":[],"categories_nodes":[],"categories_segments":[],"categories_sizes":[],"default_left":[0,0,0,0,0,0,0,0,0,0,0,0,0,0,0],"id":23,"left_children":[1,3,5,7,9,11,13,-1,-1,-1,-1,-1,-1,-1,-1],"loss_changes":[1.5485045E2,1.972866E1,5.65015E1,1.1432747E1,1.2809599E1,1.0987982E1,3.3745262E1,0E0,0E0,0E0,0E0,0E0,0E0,0E0,0E0],"parents":[2147483647,0,0,1,1,2,2,3,3,4,4,5,5,6,6],"right_children":[2,4,6,8,10,12,14,-1,-1,-1,-1,-1,-1,-1,-1],"split_conditions":[1E0,1.2210321E0,1E0,1E0,1.8998785E0,-5.851984E-1,-9.2576844E-1,-2.6030306E-2,-4.8442457E-2,2.3911966E-2,-2.2424696E-2,-8.632219E-4,-2.577125E-2,4.4511117E-2,1.4409266E-2],"split_indices":[36,1,27,38,2,0,2,0,0,0,0,0,0,0,0],"split_type":[0,0,0,0,0,0,0,0,0,0,0,0,0,0,0],"sum_hessian":[9.8661755E2,2.9872235E2,6.878952E2,2.3805418E2,6.066815E1,1.8865709E2,4.9923813E2,1.2985619E2,1.08198006E2,2.3509577E1,3.7158573E1,1.19115685E2,6.9541405E1,1.2361439E2,3.7562375E2],"tree_param":{"num_deleted":"0","num_feature":"45","num_nodes":"15","size_leaf_vector":"1"}},{"base_weights":[1.2195506E-2,-5.94769E-1,2.7436885E-1,-8.5505855E-1,-3.4591752E-1,-1.2525837E-1,4.2696038E-1,-4.6743106E-2,-1.3854972E-2,-3.590485E-2,-2.7102272E-3,-1.1390514E-2,2.4118437E-2,7.91183E-3,3.1102294E-2],"categories":[],"categories_nodes":[],"categories_segments":[],"categories_sizes":[],"default_left":[0,0,0,0,0,0,0,0,0,0,0,0,0,0,0],"id":24,"left_children":[1,3,5,7,9,11,13,-1,-1,-1,-1,-1,-1,-1,-1],"loss_changes":[1.5517776E2,1.8758125E1,4.1579216E1,6.3410645E0,1.647068E1,1.1883583E1,2.5748375E1,0E0,0E0,0E0,0E0,0E0,0E0,0E0,0E0],"parents":[2147483647,0,0,1,1,2,2,3,3,4,4,5,5,6,6],"right_children":[2,4,6,8,10,12,14,-1,-1,-1,-1,-1,-1,-1,-1],"split_conditions":[1E0,1E0,1E0,1E0,1E0,1.0947356E0,1E0,-4.6743106E-2,-1.3854972E-2,-3.590485E-2,-2.7102272E-3,-1.1390514E-2,2.4118437E-2,7.91183E-3,3.1102294E-2],"split_indices":[36,35,27,43,37,1,43,0,0,0,0,0,0,0,0],"split_type":[0,0,0,0,0,0,0,0,0,0,0,0,0,0,0],"sum_hessian":[9.731384E2,2.931622E2,6.799762E2,1.4209746E2,1.5106473E2,1.8794351E2,4.920327E2,1.2431477E2,1.7782692E1,6.5735275E1,8.532945E1,1.6133875E2,2.6604767E1,2.077185E2,2.843142E2],"tree_param":{"num_deleted":"0","num_feature":"45","num_nodes":"15","size_leaf_vector":"1"}},{"base_weights":[-2.2859043E-2,-5.879772E-1,2.147298E-1,-7.6851016E-1,-1.9743265E-1,-1.988542E-1,3.7058914E-1,-4.834673E-2,-2.9271249E-2,4.9593206E-3,-2.5030885E-2,-1.4240061E-2,1.5883254E-2,4.583558E-2,1.1734023E-2],"categories":[],"categories_nodes":[],"categories_segments":[],"categories_sizes":[],"default_left":[0,0,0,0,0,0,0,0,0,0,0,0,0,0,0],"id":25,"left_children":[1,3,5,7,9,11,13,-1,-1,-1,-1,-1,-1,-1,-1],"loss_changes":[1.3007603E2,2.006504E1,4.404361E1,6.5451355E0,8.322468E0,8.407536E0,3.658213E1,0E0,0E0,0E0,0E0,0E0,0E0,0E0,0E0],"parents":[2147483647,0,0,1,1,2,2,3,3,4,4,5,5,6,6],"right_children":[2,4,6,8,10,12,14,-1,-1,-1,-1,-1,-1,-1,-1],"split_conditions":[1E0,9.5514464E-1,1E0,1E0,1.8998785E0,1.0947356E0,-9.5510477E-1,-4.834673E-2,-2.9271249E-2,4.9593206E-3,-2.5030885E-2,-1.4240061E-2,1.5883254E-2,4.583558E-2,1.1734023E-2],"split_indices":[36,1,27,37,2,1,2,0,0,0,0,0,0,0,0],"split_type":[0,0,0,0,0,0,0,0,0,0,0,0,0,0,0],"sum_hessian":[9.66855E2,2.857376E2,6.811174E2,1.9474641E2,9.099121E1,1.8634955E2,4.9476782E2,9.1403534E1,1.0334287E2,4.6333748E1,4.465746E1,1.6014978E2,2.619976E1,9.744781E1,3.9732004E2],"tree_param":{"num_deleted":"0","num_feature":"45","num_nodes":"15","size_leaf_vector":"1"}},{"base_weights":[-7.318372E-3,-4.171388E-1,2.582261E-1,-5.6091857E-1,-8.367647E-2,8.275125E-1,1.4936408E-1,8.1790835E-3,-3.286011E-2,-1.36735365E-2,2.3043312E-2,2.7306363E-2,5.5388417E-2,-1.0326932E-2,1.51026575E-2],"categories":[],"categories_nodes":[],"categories_segments":[],"categories_sizes":[],"default_left":[0,0,0,0,0,0,0,0,0,0,0,0,0,0,0],"id":26,"left_children":[1,3,5,7,9,11,13,-1,-1,-1,-1,-1,-1,-1,-1],"loss_changes":[1.0455188E2,1.8063812E1,3.6007065E1,1.8506874E1,1.2009092E1,6.757992E0,2.6724556E1,0E0,0E0,0E0,0E0,0E0,0E0,0E0,0E0],"parents":[2147483647,0,0,1,1,2,2,3,3,4,4,5,5,6,6],"right_children":[2,4,6,8,10,12,14,-1,-1,-1,-1,-1,-1,-1,-1],"split_conditions":[1E0,1E0,-9.616386E-1,-9.8965055E-1,1.0382345E0,-3.0117387E-1,1.9736524E-1,8.1790835E-3,-3.286011E-2,-1.36735365E-2,2.3043312E-2,2.7306363E-2,5.5388417E-2,-1.0326932E-2,1.51026575E-2],"split_indices":[27,21,2,2,1,1,1,0,0,0,0,0,0,0,0],"split_type":[0,0,0,0,0,0,0,0,0,0,0,0,0,0,0],"sum_hessian":[9.587394E2,3.7673907E2,5.820003E2,2.6276147E2,1.139776E2,9.236781E1,4.8963248E2,3.0741774E1,2.320197E2,8.488847E1,2.9089127E1,4.75624E1,4.480541E1,1.4689124E2,3.4274124E2],"tree_param":{"num_deleted":"0","num_feature":"45","num_nodes":"15","size_leaf_vector":"1"}},{"base_weights":[-1.879121E-2,-4.1313347E-1,2.2337703E-1,1.0236961E-1,-5.0635356E-1,4.9440098E-1,-6.882186E-2,3.5514962E-2,-1.3882947E-2,-4.2912465E-2,-1.5664002E-2,1.37632955E-2,4.342998E-2,3.2648921E-3,-2.4854466E-2],"categories":[],"categories_nodes":[],"categories_segments":[],"categories_sizes":[],"default_left":[0,0,0,0,0,0,0,0,0,0,0,0,0,0,0],"id":27,"left_children":[1,3,5,7,9,11,13,-1,-1,-1,-1,-1,-1,-1,-1],"loss_changes":[9.290875E1,1.7838684E1,4.7771164E1,1.3484758E1,2.1038956E1,2.5414734E1,1.6744041E1,0E0,0E0,0E0,0E0,0E0,0E0,0E0,0E0],"parents":[2147483647,0,0,1,1,2,2,3,3,4,4,5,5,6,6],"right_children":[2,4,6,8,10,12,14,-1,-1,-1,-1,-1,-1,-1,-1],"split_conditions":[1E0,-1.1552835E0,-6.2591875E-1,1E0,-9.476129E-1,4.7156173E-1,1E0,3.5514962E-2,-1.3882947E-2,-4.2912465E-2,-1.5664002E-2,1.37632955E-2,4.342998E-2,3.2648921E-3,-2.4854466E-2],"split_indices":[18,0,0,39,1,1,39,0,0,0,0,0,0,0,0],"split_type":[0,0,0,0,0,0,0,0,0,0,0,0,0,0,0],"sum_hessian":[9.709291E2,3.691333E2,6.017958E2,5.651418E1,3.126191E2,3.1185144E2,2.8994434E2,2.140448E1,3.5109703E1,1.0953519E2,2.0308392E2,1.9777039E2,1.1408105E2,2.2144298E2,6.850134E1],"tree_param":{"num_deleted":"0","num_feature":"45","num_nodes":"15","size_leaf_vector":"1"}},{"base_weights":[-5.5288626E-3,-5.3103846E-1,2.0882198E-1,-6.6757077E-1,-2.207274E-2,-1.7659363E-1,3.5348767E-1,-4.067857E-2,-1.8565362E-2,2.7364893E-2,-1.9151444E-2,1.9253228E-3,-2.62575E-2,2.435795E-2,-4.417535E-4],"categories":[],"categories_nodes":[],"categories_segments":[],"categories_sizes":[],"default_left":[0,0,0,0,0,0,0,0,0,0,0,0,0,0,0],"id":28,"left_children":[1,3,5,7,9,11,13,-1,-1,-1,-1,-1,-1,-1,-1],"loss_changes":[1.07147354E2,1.913533E1,3.7733948E1,9.095245E0,1.2401614E1,1.3894896E1,2.3812885E1,0E0,0E0,0E0,0E0,0E0,0E0,0E0,0E0],"parents":[2147483647,0,0,1,1,2,2,3,3,4,4,5,5,6,6],"right_children":[2,4,6,8,10,12,14,-1,-1,-1,-1,-1,-1,-1,-1],"split_conditions":[1E0,1.2210321E0,1E0,1E0,1.863611E0,-5.851984E-1,1E0,-4.067857E-2,-1.8565362E-2,2.7364893E-2,-1.9151444E-2,1.9253228E-3,-2.62575E-2,2.435795E-2,-4.417535E-4],"split_indices":[36,1,27,18,2,0,39,0,0,0,0,0,0,0,0],"split_type":[0,0,0,0,0,0,0,0,0,0,0,0,0,0,0],"sum_hessian":[9.492238E2,2.7457913E2,6.7464465E2,2.1625589E2,5.8323242E1,1.8405856E2,4.905861E2,1.4369565E2,7.2560234E1,2.2428453E1,3.5894787E1,1.1436902E2,6.9689545E1,3.581205E2,1.3246558E2],"tree_param":{"num_deleted":"0","num_feature":"45","num_nodes":"15","size_leaf_vector":"1"}},{"base_weights":[-2.4504308E-2,-5.3035843E-1,1.7989874E-1,-7.743441E-1,-3.1876954E-1,-3.7806623E-2,3.879445E-1,-4.3025892E-2,-8.835109E-3,-3.3268552E-2,-2.8343683E-3,7.0194886E-3,-1.5504234E-2,2.2164863E-2,-2.313539E-2],"categories":[],"categories_nodes":[],"categories_segments":[],"categories_sizes":[],"default_left":[0,0,0,0,0,0,0,0,0,0,0,0,0,0,0],"id":29,"left_children":[1,3,5,7,9,11,13,-1,-1,-1,-1,-1,-1,-1,-1],"loss_changes":[9.796271E1,1.3828468E1,3.0581009E1,6.3334427E0,1.3380641E1,1.6088116E1,1.6458038E1,0E0,0E0,0E0,0E0,0E0,0E0,0E0,0E0],"parents":[2147483647,0,0,1,1,2,2,3,3,4,4,5,5,6,6],"right_children":[2,4,6,8,10,12,14,-1,-1,-1,-1,-1,-1,-1,-1],"split_conditions":[1E0,1E0,1E0,1E0,1E0,-6.2591875E-1,9.214551E-1,-4.3025892E-2,-8.835109E-3,-3.3268552E-2,-2.8343683E-3,7.0194886E-3,-1.5504234E-2,2.2164863E-2,-2.313539E-2],"split_indices":[36,35,43,43,37,0,0,0,0,0,0,0,0,0,0],"split_type":[0,0,0,0,0,0,0,0,0,0,0,0,0,0,0],"sum_hessian":[9.455095E2,2.716468E2,6.7386273E2,1.2492945E2,1.4671733E2,3.2968677E2,3.4417593E2,1.0880155E2,1.6127897E1,6.2509823E1,8.420751E1,1.9956374E2,1.3012305E2,3.23598E2,2.0577948E1],"tree_param":{"num_deleted":"0","num_feature":"45","num_nodes":"15","size_leaf_vector":"1"}},{"base_weights":[-2.0572757E-2,-5.287282E-1,1.7062616E-1,-6.4834934E-1,-7.655787E-2,-2.2624757E-2,3.591198E-1,-3.9089024E-2,-1.7039252E-2,-2.0993972E-2,1.2254879E-2,-5.6822104E-3,2.2133432E-2,2.3718333E-2,-1.1549499E-3],"categories":[],"categories_nodes":[],"categories_segments":[],"categories_sizes":[],"default_left":[0,0,0,0,0,0,0,0,0,0,0,0,0,0,0],"id":30,"left_children":[1,3,5,7,9,11,13,-1,-1,-1,-1,-1,-1,-1,-1],"loss_changes":[9.257175E1,1.4039291E1,2.5229284E1,8.181374E0,6.245826E0,1.4568917E1,1.5453194E1,0E0,0E0,0E0,0E0,0E0,0E0,0E0,0E0],"parents":[2147483647,0,0,1,1,2,2,3,3,4,4,5,5,6,6],"right_children":[2,4,6,8,10,12,14,-1,-1,-1,-1,-1,-1,-1,-1],"split_conditions":[1E0,1.2492827E0,1E0,1E0,1E0,2.2731588E0,1E0,-3.9089024E-2,-1.7039252E-2,-2.0993972E-2,1.2254879E-2,-5.6822104E-3,2.2133432E-2,2.3718333E-2,-1.1549499E-3],"split_indices":[36,1,43,27,37,3,39,0,0,0,0,0,0,0,0],"split_type":[0,0,0,0,0,0,0,0,0,0,0,0,0,0,0],"sum_hessian":[9.508598E2,2.5947623E2,6.913836E2,2.0484964E2,5.46266E1,3.418183E2,3.4956528E2,1.4179335E2,6.3056293E1,2.6275675E1,2.8350924E1,2.865248E2,5.529346E1,2.6839694E2,8.1168335E1],"tree_param":{"num_deleted":"0","num_feature":"45","num_nodes":"15","size_leaf_vector":"1"}},{"base_weights":[-2.3487646E-2,8.458633E-2,-8.374348E-1,-1.2237395E-1,3.177357E-1,-8.992603E-1,-4.634569E-1,-1.24864755E-2,7.8445515E-3,2.349942E-2,6.1554476E-3,-4.6453334E-2,-2.9479435E-2,1.12440055E-2,-4.6733376E-2],"categories":[],"categories_nodes":[],"categories_segments":[],"categories_sizes":[],"default_left":[0,0,0,0,0,0,0,0,0,0,0,0,0,0,0],"id":31,"left_children":[1,3,5,7,9,11,13,-1,-1,-1,-1,-1,-1,-1,-1],"loss_changes":[8.308401E1,4.0280876E1,2.1428986E0,1.5778103E1,1.1571606E1,3.1929016E-1,5.9735184E0,0E0,0E0,0E0,0E0,0E0,0E0,0E0,0E0],"parents":[2147483647,0,0,1,1,2,2,3,3,4,4,5,5,6,6],"right_children":[2,4,6,8,10,12,14,-1,-1,-1,-1,-1,-1,-1,-1],"split_conditions":[1E0,1E0,1.435404E0,1E0,1E0,1E0,2.403607E0,-1.24864755E-2,7.8445515E-3,2.349942E-2,6.1554476E-3,-4.6453334E-2,-2.9479435E-2,1.12440055E-2,-4.6733376E-2],"split_indices":[38,43,1,35,12,43,2,0,0,0,0,0,0,0,0],"split_type":[0,0,0,0,0,0,0,0,0,0,0,0,0,0,0],"sum_hessian":[9.426907E2,8.32985E2,1.0970569E2,4.4152792E2,3.9145706E2,9.293692E1,1.6768768E1,3.0331186E2,1.3821608E2,2.188445E2,1.7261256E2,8.295245E1,9.984471E0,7.026837E0,9.741931E0],"tree_param":{"num_deleted":"0","num_feature":"45","num_nodes":"15","size_leaf_vector":"1"}},{"base_weights":[3.1547537E-3,-3.49909E-1,2.2452463E-1,-4.2469412E-2,-5.575344E-1,-4.260826E-2,4.468701E-1,-8.286214E-3,2.5430962E-2,-4.0980574E-2,-2.0873796E-2,1.969382E-2,-9.363405E-3,4.5523655E-2,1.693399E-2],"categories":[],"categories_nodes":[],"categories_segments":[],"categories_sizes":[],"default_left":[0,0,0,0,0,0,0,0,0,0,0,0,0,0,0],"id":32,"left_children":[1,3,5,7,9,11,13,-1,-1,-1,-1,-1,-1,-1,-1],"loss_changes":[7.263099E1,2.2836178E1,3.3943466E1,9.963484E0,7.501175E0,1.6513472E1,1.5330559E1,0E0,0E0,0E0,0E0,0E0,0E0,0E0,0E0],"parents":[2147483647,0,0,1,1,2,2,3,3,4,4,5,5,6,6],"right_children":[2,4,6,8,10,12,14,-1,-1,-1,-1,-1,-1,-1,-1],"split_conditions":[1E0,-5.0375766E-1,1E0,1E0,-1.2746267E-1,-1.0738428E0,-9.5839375E-1,-8.286214E-3,2.5430962E-2,-4.0980574E-2,-2.0873796E-2,1.969382E-2,-9.363405E-3,4.5523655E-2,1.693399E-2],"split_indices":[27,0,43,32,2,0,2,0,0,0,0,0,0,0,0],"split_type":[0,0,0,0,0,0,0,0,0,0,0,0,0,0,0],"sum_hessian":[9.272826E2,3.5712375E2,5.701588E2,1.4444402E2,2.1267973E2,2.5936176E2,3.107971E2,1.1861436E2,2.5829662E1,7.23837E1,1.4029604E2,6.4132095E1,1.9522966E2,5.74035E1,2.5339359E2],"tree_param":{"num_deleted":"0","num_feature":"45","num_nodes":"15","size_leaf_vector":"1"}},{"base_weights":[-3.57023E-3,-4.4652295E-1,1.6242425E-1,-6.055164E-1,9.932286E-3,-1.1338871E-1,2.8828314E-1,-2.1620091E-2,-4.180996E-2,1.011547E-2,-3.1620838E-2,-9.909804E-3,2.1299921E-2,3.0268023E-2,6.4853146E-3],"categories":[],"categories_nodes":[],"categories_segments":[],"categories_sizes":[],"default_left":[0,0,0,0,0,0,0,0,0,0,0,0,0,0,0],"id":33,"left_children":[1,3,5,7,9,11,13,-1,-1,-1,-1,-1,-1,-1,-1],"loss_changes":[6.837941E1,1.8403648E1,2.3516079E1,7.147339E0,8.342278E0,9.813626E0,2.3292316E1,0E0,0E0,0E0,0E0,0E0,0E0,0E0,0E0],"parents":[2147483647,0,0,1,1,2,2,3,3,4,4,5,5,6,6],"right_children":[2,4,6,8,10,12,14,-1,-1,-1,-1,-1,-1,-1,-1],"split_conditions":[1E0,1.1612074E0,1E0,1E0,1.5729809E0,2.2731588E0,-1.0331224E0,-2.1620091E-2,-4.180996E-2,1.011547E-2,-3.1620838E-2,-9.909804E-3,2.1299921E-2,3.0268023E-2,6.4853146E-3],"split_indices":[36,1,40,38,0,3,0,0,0,0,0,0,0,0,0],"split_type":[0,0,0,0,0,0,0,0,0,0,0,0,0,0,0],"sum_hessian":[9.2799524E2,2.5250392E2,6.7549133E2,1.8703052E2,6.5473404E1,2.1168787E2,4.6380344E2,1.0848961E2,7.854091E1,5.091109E1,1.4562315E1,1.834731E2,2.8214764E1,1.5368666E2,3.101168E2],"tree_param":{"num_deleted":"0","num_feature":"45","num_nodes":"15","size_leaf_vector":"1"}},{"base_weights":[-1.4027678E-3,-4.4760796E-1,1.6096643E-1,-7.280771E-1,-2.0062415E-1,-3.9978143E-2,3.8784188E-1,-2.7060164E-2,-4.589688E-2,-2.6793143E-2,2.5079732E-3,2.3852399E-2,-1.0579605E-2,2.4173165E-2,-2.11439E-2],"categories":[],"categories_nodes":[],"categories_segments":[],"categories_sizes":[],"default_left":[0,0,0,0,0,0,0,0,0,0,0,0,0,0,0],"id":34,"left_children":[1,3,5,7,9,11,13,-1,-1,-1,-1,-1,-1,-1,-1],"loss_changes":[6.6386116E1,1.6788773E1,3.0644156E1,3.5512962E0,1.1071972E1,3.1793636E1,2.4674438E1,0E0,0E0,0E0,0E0,0E0,0E0,0E0,0E0],"parents":[2147483647,0,0,1,1,2,2,3,3,4,4,5,5,6,6],"right_children":[2,4,6,8,10,12,14,-1,-1,-1,-1,-1,-1,-1,-1],"split_conditions":[1E0,1E0,3.6853033E-1,1E0,1E0,-1.2367243E0,8.807347E-1,-2.7060164E-2,-4.589688E-2,-2.6793143E-2,2.5079732E-3,2.3852399E-2,-1.0579605E-2,2.4173165E-2,-2.11439E-2],"split_indices":[36,32,1,17,37,0,0,0,0,0,0,0,0,0,0],"split_type":[0,0,0,0,0,0,0,0,0,0,0,0,0,0,0],"sum_hessian":[9.1430835E2,2.4347108E2,6.708372E2,1.1309506E2,1.3037602E2,3.5618576E2,3.146515E2,5.893635E1,5.4158707E1,5.5306923E1,7.50691E1,8.832047E1,2.678653E2,2.8181598E2,3.283549E1],"tree_param":{"num_deleted":"0","num_feature":"45","num_nodes":"15","size_leaf_vector":"1"}},{"base_weights":[3.4071654E-3,-4.316757E-1,1.6283013E-1,-5.684897E-1,1.55194085E-2,-5.4300256E-2,3.1425384E-1,-3.2999545E-2,-9.582202E-3,1.5465147E-2,-1.5951745E-2,9.376059E-3,-1.8422171E-2,2.2480616E-2,-5.9005893E-3],"categories":[],"categories_nodes":[],"categories_segments":[],"categories_sizes":[],"default_left":[0,0,0,0,0,0,0,0,0,0,0,0,0,0,0],"id":35,"left_children":[1,3,5,7,9,11,13,-1,-1,-1,-1,-1,-1,-1,-1],"loss_changes":[6.428881E1,1.5215649E1,2.2318502E1,6.4370804E0,5.9172506E0,2.130448E1,2.3443268E1,0E0,0E0,0E0,0E0,0E0,0E0,0E0,0E0],"parents":[2147483647,0,0,1,1,2,2,3,3,4,4,5,5,6,6],"right_children":[2,4,6,8,10,12,14,-1,-1,-1,-1,-1,-1,-1,-1],"split_conditions":[1E0,1.2492827E0,1E0,1E0,2.0801346E0,-8.685526E-1,3.5469943E-1,-3.2999545E-2,-9.582202E-3,1.5465147E-2,-1.5951745E-2,9.376059E-3,-1.8422171E-2,2.2480616E-2,-5.9005893E-3],"split_indices":[36,1,16,43,2,2,2,0,0,0,0,0,0,0,0],"split_type":[0,0,0,0,0,0,0,0,0,0,0,0,0,0,0],"sum_hessian":[9.2484314E2,2.4754843E2,6.772947E2,1.8934834E2,5.8200085E1,2.78536E2,3.9875867E2,1.5175067E2,3.759767E1,3.1028439E1,2.7171646E1,1.5761221E2,1.2092381E2,3.0363812E2,9.512056E1],"tree_param":{"num_deleted":"0","num_feature":"45","num_nodes":"15","size_leaf_vector":"1"}},{"base_weights":[-3.7801825E-3,-4.557056E-1,1.5613389E-1,-5.8244586E-1,-7.7604833E-3,2.942481E-1,-1.5538307E-1,-4.0487062E-2,-2.1500213E-2,-1.9002484E-2,8.808314E-3,1.0565605E-2,3.4700163E-2,-2.2427127E-2,3.9507654E-3],"categories":[],"categories_nodes":[],"categories_segments":[],"categories_sizes":[],"default_left":[0,0,0,0,0,0,0,0,0,0,0,0,0,0,0],"id":36,"left_children":[1,3,5,7,9,11,13,-1,-1,-1,-1,-1,-1,-1,-1],"loss_changes":[6.611479E1,1.3570171E1,2.9119791E1,6.109062E0,3.7471242E0,1.5386826E1,1.4343916E1,0E0,0E0,0E0,0E0,0E0,0E0,0E0,0E0],"parents":[2147483647,0,0,1,1,2,2,3,3,4,4,5,5,6,6],"right_children":[2,4,6,8,10,12,14,-1,-1,-1,-1,-1,-1,-1,-1],"split_conditions":[1E0,1.2742097E0,1E0,1E0,1E0,1.0382345E0,1E0,-4.0487062E-2,-2.1500213E-2,-1.9002484E-2,8.808314E-3,1.0565605E-2,3.4700163E-2,-2.2427127E-2,3.9507654E-3],"split_indices":[36,1,39,37,8,1,21,0,0,0,0,0,0,0,0],"split_type":[0,0,0,0,0,0,0,0,0,0,0,0,0,0,0],"sum_hessian":[9.128555E2,2.38106E2,6.747496E2,1.8536041E2,5.2745583E1,4.6752362E2,2.0722594E2,7.268016E1,1.1268025E2,1.7089048E1,3.5656536E1,3.8845966E2,7.906397E1,9.1666306E1,1.1555963E2],"tree_param":{"num_deleted":"0","num_feature":"45","num_nodes":"15","size_leaf_vector":"1"}},{"base_weights":[-5.0572114E-4,2.0510374E-1,-2.8845537E-1,-9.3533374E-2,3.73777E-1,-5.9241337E-1,-1.0083048E-1,-1.701134E-2,6.223252E-3,3.0968184E-2,8.218032E-3,-3.287238E-2,-2.027931E-3,-2.0922124E-3,-3.598868E-2],"categories":[],"categories_nodes":[],"categories_segments":[],"categories_sizes":[],"default_left":[0,0,0,0,0,0,0,0,0,0,0,0,0,0,0],"id":37,"left_children":[1,3,5,7,9,11,13,-1,-1,-1,-1,-1,-1,-1,-1],"loss_changes":[5.3808346E1,2.6744017E1,2.1532476E1,1.0377847E1,1.733548E1,5.1522255E0,8.560832E0,0E0,0E0,0E0,0E0,0E0,0E0,0E0,0E0],"parents":[2147483647,0,0,1,1,2,2,3,3,4,4,5,5,6,6],"right_children":[2,4,6,8,10,12,14,-1,-1,-1,-1,-1,-1,-1,-1],"split_conditions":[-2.594355E-1,1E0,1E0,1E0,1E0,2.2731588E0,1.5729809E0,-1.701134E-2,6.223252E-3,3.0968184E-2,8.218032E-3,-3.287238E-2,-2.027931E-3,-2.0922124E-3,-3.598868E-2],"split_indices":[0,40,16,21,12,3,0,0,0,0,0,0,0,0,0],"split_type":[0,0,0,0,0,0,0,0,0,0,0,0,0,0,0],"sum_hessian":[9.0684607E2,5.292352E2,3.7761087E2,1.911855E2,3.380497E2,1.4330118E2,2.343097E2,8.942681E1,1.0175869E2,1.5468732E2,1.8336238E2,1.2802278E2,1.5278392E1,2.1489726E2,1.9412436E1],"tree_param":{"num_deleted":"0","num_feature":"45","num_nodes":"15","size_leaf_vector":"1"}},{"base_weights":[5.682455E-4,1.9331346E-1,-2.7131727E-1,2.9501283E-1,-3.3754998E-1,-5.8043903E-1,-7.7620655E-2,1.1701567E-2,4.959616E-2,5.5063213E-3,-2.9431239E-2,-3.253105E-2,-2.728896E-3,4.779918E-3,-1.6969234E-2],"categories":[],"categories_nodes":[],"categories_segments":[],"categories_sizes":[],"default_left":[0,0,0,0,0,0,0,0,0,0,0,0,0,0,0],"id":38,"left_children":[1,3,5,7,9,11,13,-1,-1,-1,-1,-1,-1,-1,-1],"loss_changes":[4.7079185E1,2.8481188E1,2.2269468E1,1.8540066E1,9.617119E0,5.2571754E0,1.0473455E1,0E0,0E0,0E0,0E0,0E0,0E0,0E0,0E0],"parents":[2147483647,0,0,1,1,2,2,3,3,4,4,5,5,6,6],"right_children":[2,4,6,8,10,12,14,-1,-1,-1,-1,-1,-1,-1,-1],"split_conditions":[-2.594355E-1,1E0,1E0,1.0947356E0,-9.8965055E-1,2.2731588E0,9.214551E-1,1.1701567E-2,4.959616E-2,5.5063213E-3,-2.9431239E-2,-3.253105E-2,-2.728896E-3,4.779918E-3,-1.6969234E-2],"split_indices":[0,17,16,1,2,3,0,0,0,0,0,0,0,0,0],"split_type":[0,0,0,0,0,0,0,0,0,0,0,0,0,0,0],"sum_hessian":[8.963774E2,5.246976E2,3.7167987E2,4.4071292E2,8.3984634E1,1.4241005E2,2.292698E2,4.064806E2,3.423232E1,3.0379013E1,5.360562E1,1.2543246E2,1.6977594E1,1.3835194E2,9.0917854E1],"tree_param":{"num_deleted":"0","num_feature":"45","num_nodes":"15","size_leaf_vector":"1"}},{"base_weights":[1.832897E-2,-4.1039163E-1,1.63649E-1,-6.3103557E-1,-1.2357179E-1,-3.367515E-2,2.890527E-1,-4.187445E-2,-2.5035491E-2,-1.5471202E-2,1.124107E-2,4.9661915E-3,-1.4225677E-2,2.7506996E-2,7.1756328E-3],"categories":[],"categories_nodes":[],"categories_segments":[],"categories_sizes":[],"default_left":[0,0,0,0,0,0,0,0,0,0,0,0,0,0,0],"id":39,"left_children":[1,3,5,7,9,11,13,-1,-1,-1,-1,-1,-1,-1,-1],"loss_changes":[5.501415E1,1.4069607E1,1.6326628E1,2.9737892E0,6.443774E0,8.6061125E0,1.5245014E1,0E0,0E0,0E0,0E0,0E0,0E0,0E0,0E0],"parents":[2147483647,0,0,1,1,2,2,3,3,4,4,5,5,6,6],"right_children":[2,4,6,8,10,12,14,-1,-1,-1,-1,-1,-1,-1,-1],"split_conditions":[1E0,1E0,1E0,1E0,1E0,1E0,1E0,-4.187445E-2,-2.5035491E-2,-1.5471202E-2,1.124107E-2,4.9661915E-3,-1.4225677E-2,2.7506996E-2,7.1756328E-3],"split_indices":[36,16,21,15,43,39,30,0,0,0,0,0,0,0,0],"split_type":[0,0,0,0,0,0,0,0,0,0,0,0,0,0,0],"sum_hessian":[8.8095026E2,2.2255331E2,6.583969E2,1.25109406E2,9.74439E1,2.5612027E2,4.0227667E2,4.6314644E1,7.879476E1,6.361825E1,3.382565E1,1.6776978E2,8.835049E1,1.4298788E2,2.592888E2],"tree_param":{"num_deleted":"0","num_feature":"45","num_nodes":"15","size_leaf_vector":"1"}},{"base_weights":[-9.2198495E-3,-4.2438534E-1,1.2496302E-1,-6.1097765E-1,-9.4411395E-2,-7.598689E-2,2.5040913E-1,-4.3032777E-2,-2.2868989E-2,2.2247809E-3,-3.3707432E-2,-8.374475E-3,1.648992E-2,4.1322666E-3,2.2309659E-2],"categories":[],"categories_nodes":[],"categories_segments":[],"categories_sizes":[],"default_left":[0,0,0,0,0,0,0,0,0,0,0,0,0,0,0],"id":40,"left_children":[1,3,5,7,9,11,13,-1,-1,-1,-1,-1,-1,-1,-1],"loss_changes":[4.9915157E1,1.3417252E1,1.7090324E1,4.9606743E0,6.491387E0,9.747874E0,1.3665079E1,0E0,0E0,0E0,0E0,0E0,0E0,0E0,0E0],"parents":[2147483647,0,0,1,1,2,2,3,3,4,4,5,5,6,6],"right_children":[2,4,6,8,10,12,14,-1,-1,-1,-1,-1,-1,-1,-1],"split_conditions":[1E0,9.750862E-1,1E0,-8.013748E-1,1.5729809E0,1.0947356E0,3.6853033E-1,-4.3032777E-2,-2.2868989E-2,2.2247809E-3,-3.3707432E-2,-8.374475E-3,1.648992E-2,4.1322666E-3,2.2309659E-2],"split_indices":[36,1,21,1,0,1,1,0,0,0,0,0,0,0,0],"split_type":[0,0,0,0,0,0,0,0,0,0,0,0,0,0,0],"sum_hessian":[8.940606E2,2.1785341E2,6.7620715E2,1.3861716E2,7.923625E1,2.6004306E2,4.1616412E2,5.10426E1,8.7574554E1,6.4665436E1,1.4570811E1,2.1267346E2,4.7369583E1,2.2488576E2,1.9127838E2],"tree_param":{"num_deleted":"0","num_feature":"45","num_nodes":"15","size_leaf_vector":"1"}},{"base_weights":[-9.6018445E-3,-3.093084E-1,1.5786013E-1,-2.0386359E-1,-7.190246E-1,4.361811E-1,3.6473863E-2,-1.5104957E-2,8.871128E-3,-4.2277902E-2,-1.1726261E-2,1.4595613E-2,3.7267573E-2,-1.1308818E-2,1.0170099E-2],"categories":[],"categories_nodes":[],"categories_segments":[],"categories_sizes":[],"default_left":[0,0,0,0,0,0,0,0,0,0,0,0,0,0,0],"id":41,"left_children":[1,3,5,7,9,11,13,-1,-1,-1,-1,-1,-1,-1,-1],"loss_changes":[4.4801163E1,1.367676E1,1.9332432E1,9.637449E0,3.7924347E0,7.5359306E0,1.7577793E1,0E0,0E0,0E0,0E0,0E0,0E0,0E0,0E0],"parents":[2147483647,0,0,1,1,2,2,3,3,4,4,5,5,6,6],"right_children":[2,4,6,8,10,12,14,-1,-1,-1,-1,-1,-1,-1,-1],"split_conditions":[1E0,1E0,-8.459268E-1,9.6677727E-1,1.2924894E0,3.336326E-1,5.1310664E-1,-1.5104957E-2,8.871128E-3,-4.2277902E-2,-1.1726261E-2,1.4595613E-2,3.7267573E-2,-1.1308818E-2,1.0170099E-2],"split_indices":[18,38,2,1,1,1,1,0,0,0,0,0,0,0,0],"split_type":[0,0,0,0,0,0,0,0,0,0,0,0,0,0,0],"sum_hessian":[8.906681E2,3.1896667E2,5.717014E2,2.5487059E2,6.4096085E1,1.7283128E2,3.9887015E2,2.0282256E2,5.2048042E1,5.0232086E1,1.3863995E1,1.1916789E2,5.3663387E1,1.5485742E2,2.4401273E2],"tree_param":{"num_deleted":"0","num_feature":"45","num_nodes":"15","size_leaf_vector":"1"}},{"base_weights":[1.256174E-2,3.6796182E-1,-1.2156748E-1,1.08781874E-1,5.4174304E-1,-4.2605814E-2,-6.3450384E-1,-6.6071036E-3,1.3719431E-2,4.2915765E-2,1.8417303E-2,-1.1787842E-2,8.836394E-3,-3.8413517E-2,-1.9424621E-2],"categories":[],"categories_nodes":[],"categories_segments":[],"categories_sizes":[],"default_left":[0,0,0,0,0,0,0,0,0,0,0,0,0,0,0],"id":42,"left_children":[1,3,5,7,9,11,13,-1,-1,-1,-1,-1,-1,-1,-1],"loss_changes":[4.218338E1,1.0861347E1,2.5996523E1,3.9689486E0,7.637081E0,2.3675879E1,2.5198784E0,0E0,0E0,0E0,0E0,0E0,0E0,0E0,0E0],"parents":[2147483647,0,0,1,1,2,2,3,3,4,4,5,5,6,6],"right_children":[2,4,6,8,10,12,14,-1,-1,-1,-1,-1,-1,-1,-1],"split_conditions":[-1.0738428E0,1E0,1E0,1E0,1E0,1E0,9.1193795E-1,-6.6071036E-3,1.3719431E-2,4.2915765E-2,1.8417303E-2,-1.1787842E-2,8.836394E-3,-3.8413517E-2,-1.9424621E-2],"split_indices":[0,40,38,18,12,32,1,0,0,0,0,0,0,0,0],"split_type":[0,0,0,0,0,0,0,0,0,0,0,0,0,0,0],"sum_hessian":[8.829744E2,2.4145404E2,6.415204E2,9.756704E1,1.4388701E2,5.5687744E2,8.4642914E1,3.9827805E1,5.7739235E1,4.952282E1,9.436419E1,2.9607294E2,2.608045E2,5.345457E1,3.1188343E1],"tree_param":{"num_deleted":"0","num_feature":"45","num_nodes":"15","size_leaf_vector":"1"}},{"base_weights":[-1.2833735E-2,5.0123747E-2,-5.9038925E-1,-1.4252546E-1,1.8441008E-1,-7.6388437E-1,-2.901905E-1,2.2861562E-3,-1.6382651E-2,1.66592E-2,-5.336909E-3,-4.1488796E-2,-2.1574425E-2,-3.8398632E-3,-3.9546117E-2],"categories":[],"categories_nodes":[],"categories_segments":[],"categories_sizes":[],"default_left":[0,0,0,0,0,0,0,0,0,0,0,0,0,0,0],"id":43,"left_children":[1,3,5,7,9,11,13,-1,-1,-1,-1,-1,-1,-1,-1],"loss_changes":[3.202989E1,2.05796E1,4.287754E0,1.1407122E1,2.0332626E1,8.303127E-1,3.500016E0,0E0,0E0,0E0,0E0,0E0,0E0,0E0,0E0],"parents":[2147483647,0,0,1,1,2,2,3,3,4,4,5,5,6,6],"right_children":[2,4,6,8,10,12,14,-1,-1,-1,-1,-1,-1,-1,-1],"split_conditions":[1E0,1E0,9.1193795E-1,-8.6062807E-1,3.5469943E-1,1E0,2.403607E0,2.2861562E-3,-1.6382651E-2,1.66592E-2,-5.336909E-3,-4.1488796E-2,-2.1574425E-2,-3.8398632E-3,-3.9546117E-2],"split_indices":[38,16,1,2,2,21,2,0,0,0,0,0,0,0,0],"split_type":[0,0,0,0,0,0,0,0,0,0,0,0,0,0,0],"sum_hessian":[8.790613E2,7.934798E2,8.558148E1,3.2589072E2,4.675891E2,5.3257538E1,3.2323948E1,1.6195665E2,1.6393405E2,3.0936316E2,1.5822594E2,4.3197964E1,1.0059573E1,2.3473701E1,8.8502445E0],"tree_param":{"num_deleted":"0","num_feature":"45","num_nodes":"15","size_leaf_vector":"1"}},{"base_weights":[7.361456E-4,8.621372E-2,-4.5966446E-1,2.2670703E-1,-1.778899E-1,-5.987668E-1,-1.5713508E-1,3.5382185E-2,7.5847483E-3,6.102166E-3,-1.3789587E-2,-3.9774332E-2,-1.7956318E-2,-1.7726313E-3,-2.2587555E-2],"categories":[],"categories_nodes":[],"categories_segments":[],"categories_sizes":[],"default_left":[0,0,0,0,0,0,0,0,0,0,0,0,0,0,0],"id":44,"left_children":[1,3,5,7,9,11,13,-1,-1,-1,-1,-1,-1,-1,-1],"loss_changes":[3.468E1,2.7617958E1,5.7128944E0,1.7410921E1,7.628475E0,4.1537323E0,1.5907303E0,0E0,0E0,0E0,0E0,0E0,0E0,0E0,0E0],"parents":[2147483647,0,0,1,1,2,2,3,3,4,4,5,5,6,6],"right_children":[2,4,6,8,10,12,14,-1,-1,-1,-1,-1,-1,-1,-1],"split_conditions":[9.214551E-1,1E0,1E0,-1.2367243E0,-1.1960039E0,1.5961626E0,1E0,3.5382185E-2,7.5847483E-3,6.102166E-3,-1.3789587E-2,-3.9774332E-2,-1.7956318E-2,-1.7726313E-3,-2.2587555E-2],"split_indices":[0,39,43,0,0,2,9,0,0,0,0,0,0,0,0],"split_type":[0,0,0,0,0,0,0,0,0,0,0,0,0,0,0],"sum_hessian":[8.792265E2,7.422363E2,1.369902E2,4.8459265E2,2.5764368E2,9.317112E1,4.381908E1,6.424632E1,4.203463E2,6.3341953E1,1.9430173E2,4.989392E1,4.32772E1,3.1803797E1,1.20152855E1],"tree_param":{"num_deleted":"0","num_feature":"45","num_nodes":"15","size_leaf_vector":"1"}},{"base_weights":[1.0388814E-4,-3.6395937E-1,1.14509694E-1,-6.4241415E-1,-1.5650147E-1,3.0415365E-1,-7.063919E-2,-2.605023E-2,-3.8483474E-2,4.4136522E-3,-2.7969895E-2,2.0503104E-2,2.7382406E-4,1.2091188E-2,-9.663419E-3],"categories":[],"categories_nodes":[],"categories_segments":[],"categories_sizes":[],"default_left":[0,0,0,0,0,0,0,0,0,0,0,0,0,0,0],"id":45,"left_children":[1,3,5,7,9,11,13,-1,-1,-1,-1,-1,-1,-1,-1],"loss_changes":[3.652266E1,1.2011478E1,2.3448671E1,9.770546E-1,1.2028929E1,1.0429831E1,1.3013835E1,0E0,0E0,0E0,0E0,0E0,0E0,0E0,0E0],"parents":[2147483647,0,0,1,1,2,2,3,3,4,4,5,5,6,6],"right_children":[2,4,6,8,10,12,14,-1,-1,-1,-1,-1,-1,-1,-1],"split_conditions":[1E0,1E0,1E0,1E0,1E0,3.5469943E-1,-9.709097E-1,-2.605023E-2,-3.8483474E-2,4.4136522E-3,-2.7969895E-2,2.0503104E-2,2.7382406E-4,1.2091188E-2,-9.663419E-3],"split_indices":[36,35,12,17,38,2,2,0,0,0,0,0,0,0,0],"split_type":[0,0,0,0,0,0,0,0,0,0,0,0,0,0,0],"sum_hessian":[8.7487396E2,2.0866783E2,6.662061E2,8.819453E1,1.2047331E2,3.2879047E2,3.3741565E2,4.77409E1,4.0453625E1,7.5428566E1,4.5044746E1,2.4244763E2,8.634284E1,9.4825455E1,2.4259018E2],"tree_param":{"num_deleted":"0","num_feature":"45","num_nodes":"15","size_leaf_vector":"1"}},{"base_weights":[-2.4163714E-2,-2.3023061E-1,1.3338813E-1,-3.403777E-1,1.7380106E-1,7.8477204E-1,7.475053E-2,-2.3914257E-3,-2.4464749E-2,2.603187E-2,-3.4149145E-3,6.49369E-2,3.1440277E-2,1.00166565E-2,-7.309735E-3],"categories":[],"categories_nodes":[],"categories_segments":[],"categories_sizes":[],"default_left":[0,0,0,0,0,0,0,0,0,0,0,0,0,0,0],"id":46,"left_children":[1,3,5,7,9,11,13,-1,-1,-1,-1,-1,-1,-1,-1],"loss_changes":[2.8403479E1,1.6926865E1,1.888221E1,1.2966492E1,6.9089527E0,2.4578075E0,1.2683068E1,0E0,0E0,0E0,0E0,0E0,0E0,0E0,0E0],"parents":[2147483647,0,0,1,1,2,2,3,3,4,4,5,5,6,6],"right_children":[2,4,6,8,10,12,14,-1,-1,-1,-1,-1,-1,-1,-1],"split_conditions":[1E0,1E0,-9.5510477E-1,-1.1145631E0,-8.685526E-1,1.7576188E-1,1E0,-2.3914257E-3,-2.4464749E-2,2.603187E-2,-3.4149145E-3,6.49369E-2,3.1440277E-2,1.00166565E-2,-7.309735E-3],"split_indices":[16,10,2,0,2,1,12,0,0,0,0,0,0,0,0],"split_type":[0,0,0,0,0,0,0,0,0,0,0,0,0,0,0],"sum_hessian":[8.729166E2,3.780249E2,4.9489172E2,2.9716843E2,8.0856476E1,3.9848267E1,4.5504346E2,1.0068773E2,1.9648068E2,3.2765484E1,4.8090992E1,7.571246E0,3.227702E1,2.9019397E2,1.6484947E2],"tree_param":{"num_deleted":"0","num_feature":"45","num_nodes":"15","size_leaf_vector":"1"}},{"base_weights":[1.4512572E-2,6.80039E-2,-5.338714E-1,-1.0443151E-1,1.8834028E-1,-7.2772616E-1,-2.4579157E-1,-1.0242573E-2,1.1783219E-2,1.687408E-2,-5.1770117E-3,-3.866727E-2,-1.9521447E-2,-2.6781368E-3,-4.6999253E-2],"categories":[],"categories_nodes":[],"categories_segments":[],"categories_sizes":[],"default_left":[0,0,0,0,0,0,0,0,0,0,0,0,0,0,0],"id":47,"left_children":[1,3,5,7,9,11,13,-1,-1,-1,-1,-1,-1,-1,-1],"loss_changes":[2.5889416E1,1.670081E1,4.201765E0,1.1354983E1,2.0661636E1,4.1170692E-1,4.3616652E0,0E0,0E0,0E0,0E0,0E0,0E0,0E0,0E0],"parents":[2147483647,0,0,1,1,2,2,3,3,4,4,5,5,6,6],"right_children":[2,4,6,8,10,12,14,-1,-1,-1,-1,-1,-1,-1,-1],"split_conditions":[1E0,1E0,1E0,1E0,3.5469943E-1,1E0,2.460359E0,-1.0242573E-2,1.1783219E-2,1.687408E-2,-5.1770117E-3,-3.866727E-2,-1.9521447E-2,-2.6781368E-3,-4.6999253E-2],"split_indices":[38,16,16,10,2,24,2,0,0,0,0,0,0,0,0],"split_type":[0,0,0,0,0,0,0,0,0,0,0,0,0,0,0],"sum_hessian":[8.8034235E2,8.029006E2,7.7441795E1,3.3006613E2,4.7283444E2,4.537913E1,3.2062664E1,2.5513129E2,7.493483E1,3.128316E2,1.6000285E2,3.8834084E1,6.545048E0,2.5953148E1,6.1095176E0],"tree_param":{"num_deleted":"0","num_feature":"45","num_nodes":"15","size_leaf_vector":"1"}},{"base_weights":[-1.3390552E-2,4.1973118E-2,-5.702802E-1,-8.0392726E-2,2.3490603E-1,-7.6513183E-1,-2.4073318E-1,-8.662498E-4,-3.7263423E-2,1.8789368E-2,5.60435E-4,-4.050933E-2,-2.1433959E-2,1.4430886E-3,-3.95498E-2],"categories":[],"categories_nodes":[],"categories_segments":[],"categories_sizes":[],"default_left":[0,0,0,0,0,0,0,0,0,0,0,0,0,0,0],"id":48,"left_children":[1,3,5,7,9,11,13,-1,-1,-1,-1,-1,-1,-1,-1],"loss_changes":[2.675688E1,1.8659916E1,4.854841E0,2.0278128E1,9.661119E0,3.932953E-1,4.5649204E0,0E0,0E0,0E0,0E0,0E0,0E0,0E0,0E0],"parents":[2147483647,0,0,1,1,2,2,3,3,4,4,5,5,6,6],"right_children":[2,4,6,8,10,12,14,-1,-1,-1,-1,-1,-1,-1,-1],"split_conditions":[1E0,1E0,9.1193795E-1,7.1785325E-1,4.1025966E-1,1E0,1.6137012E0,-8.662498E-4,-3.7263423E-2,1.8789368E-2,5.60435E-4,-4.050933E-2,-2.1433959E-2,1.4430886E-3,-3.95498E-2],"split_indices":[38,32,1,0,2,27,0,0,0,0,0,0,0,0,0],"split_type":[0,0,0,0,0,0,0,0,0,0,0,0,0,0,0],"sum_hessian":[8.660672E2,7.885932E2,7.747405E1,4.829011E2,3.0569208E2,4.785626E1,2.9617792E1,4.4200058E2,4.0900536E1,1.8714868E2,1.1854339E2,4.0962856E1,6.8934026E0,2.05145E1,9.103294E0],"tree_param":{"num_deleted":"0","num_feature":"45","num_nodes":"15","size_leaf_vector":"1"}},{"base_weights":[-1.832554E-3,-3.2947454E-1,9.867511E-2,-4.3587402E-1,-2.4588488E-2,4.882153E-1,2.3451319E-2,-1.3630419E-2,-3.0320663E-2,8.001488E-3,-3.2063495E-2,9.104409E-3,4.1188337E-2,1.0142682E-2,-9.487722E-3],"categories":[],"categories_nodes":[],"categories_segments":[],"categories_sizes":[],"default_left":[0,0,0,0,0,0,0,0,0,0,0,0,0,0,0],"id":49,"left_children":[1,3,5,7,9,11,13,-1,-1,-1,-1,-1,-1,-1,-1],"loss_changes":[2.8639374E1,6.612097E0,1.9490833E1,4.046871E0,6.2363625E0,1.0910076E1,2.1415247E1,0E0,0E0,0E0,0E0,0E0,0E0,0E0,0E0],"parents":[2147483647,0,0,1,1,2,2,3,3,4,4,5,5,6,6],"right_children":[2,4,6,8,10,12,14,-1,-1,-1,-1,-1,-1,-1,-1],"split_conditions":[1E0,1.2492827E0,-1.2367243E0,1E0,1.5729809E0,-4.8064795E-1,1E0,-1.3630419E-2,-3.0320663E-2,8.001488E-3,-3.2063495E-2,9.104409E-3,4.1188337E-2,1.0142682E-2,-9.487722E-3],"split_indices":[36,1,0,39,0,1,12,0,0,0,0,0,0,0,0],"split_type":[0,0,0,0,0,0,0,0,0,0,0,0,0,0,0],"sum_hessian":[8.677034E2,2.0315765E2,6.645458E2,1.5028233E2,5.2875324E1,1.06670616E2,5.578752E2,7.810605E1,7.2176285E1,4.1262817E1,1.1612507E1,5.6587704E1,5.0082916E1,3.029804E2,2.5489476E2],"tree_param":{"num_deleted":"0","num_feature":"45","num_nodes":"15","size_leaf_vector":"1"}},{"base_weights":[9.351443E-3,6.292151E-2,-5.791675E-1,3.987685E-1,4.4451486E-3,-4.539759E-2,-4.206538E-1,1.52730495E-2,5.080979E-2,-8.444252E-3,1.0743468E-2,-1.6917098E-2,-4.6060815E-2],"categories":[],"categories_nodes":[],"categories_segments":[],"categories_sizes":[],"default_left":[0,0,0,0,0,0,0,0,0,0,0,0,0],"id":50,"left_children":[1,3,5,7,9,-1,11,-1,-1,-1,-1,-1,-1],"loss_changes":[2.7259583E1,1.555922E1,3.3777485E0,6.458275E0,2.4686728E1,0E0,1.770525E0,0E0,0E0,0E0,0E0,0E0,0E0],"parents":[2147483647,0,0,1,1,2,2,3,3,4,4,6,6],"right_children":[2,4,6,8,10,-1,12,-1,-1,-1,-1,-1,-1],"split_conditions":[1E0,-9.709097E-1,7.539727E-2,2.2731588E0,1E0,-4.539759E-2,2.460359E0,1.52730495E-2,5.080979E-2,-8.444252E-3,1.0743468E-2,-1.6917098E-2,-4.6060815E-2],"split_indices":[38,2,2,3,35,0,2,0,0,0,0,0,0],"split_type":[0,0,0,0,0,0,0,0,0,0,0,0,0],"sum_hessian":[8.6248663E2,7.9134717E2,7.1139465E1,1.16490204E2,6.7485693E2,2.1603085E1,4.953638E1,1.024955E2,1.3994706E1,3.7015283E2,3.047041E2,4.398025E1,5.556132E0],"tree_param":{"num_deleted":"0","num_feature":"45","num_nodes":"13","size_leaf_vector":"1"}},{"base_weights":[-5.2799988E-3,-3.3633497E-1,9.203004E-2,-5.865783E-1,-1.5336494E-1,2.3551239E-1,-4.8064414E-2,-3.2532178E-2,-9.2597725E-3,-2.2881257E-3,-1.8036226E-2,1.5806388E-2,-7.622197E-3,-7.668254E-3,4.133534E-3],"categories":[],"categories_nodes":[],"categories_segments":[],"categories_sizes":[],"default_left":[0,0,0,0,0,0,0,0,0,0,0,0,0,0,0],"id":51,"left_children":[1,3,5,7,9,11,13,-1,-1,-1,-1,-1,-1,-1,-1],"loss_changes":[2.7506857E1,8.7910385E0,1.3276613E1,1.976984E0,2.5136237E0,1.02499275E1,4.6208367E0,0E0,0E0,0E0,0E0,0E0,0E0,0E0,0E0],"parents":[2147483647,0,0,1,1,2,2,3,3,4,4,5,5,6,6],"right_children":[2,4,6,8,10,12,14,-1,-1,-1,-1,-1,-1,-1,-1],"split_conditions":[1E0,1E0,1E0,1E0,1E0,1E0,1E0,-3.2532178E-2,-9.2597725E-3,-2.2881257E-3,-1.8036226E-2,1.5806388E-2,-7.622197E-3,-7.668254E-3,4.133534E-3],"split_indices":[36,32,12,43,9,9,43,0,0,0,0,0,0,0,0],"split_type":[0,0,0,0,0,0,0,0,0,0,0,0,0,0,0],"sum_hessian":[8.5189246E2,1.9296315E2,6.589293E2,8.056738E1,1.1239577E2,3.2519205E2,3.3373724E2,6.894239E1,1.1624986E1,7.480096E1,3.7594803E1,2.693977E2,5.5794342E1,1.8475397E2,1.4898329E2],"tree_param":{"num_deleted":"0","num_feature":"45","num_nodes":"15","size_leaf_vector":"1"}},{"base_weights":[-2.4694357E-2,-1.640529E-1,1.4868127E-1,-3.6027682E-1,-7.643473E-2,-1.4321804E-1,2.2941032E-1,-3.653848E-2,-1.0293222E-2,-6.4986907E-3,1.9520683E-2,-1.4877381E-2,7.294188E-3,1.8022088E-2,1.773132E-3],"categories":[],"categories_nodes":[],"categories_segments":[],"categories_sizes":[],"default_left":[0,0,0,0,0,0,0,0,0,0,0,0,0,0,0],"id":52,"left_children":[1,3,5,7,9,11,13,-1,-1,-1,-1,-1,-1,-1,-1],"loss_changes":[2.060037E1,8.097673E0,8.987739E0,8.179955E0,8.248491E0,3.7441292E0,7.5620756E0,0E0,0E0,0E0,0E0,0E0,0E0,0E0,0E0],"parents":[2147483647,0,0,1,1,2,2,3,3,4,4,5,5,6,6],"right_children":[2,4,6,8,10,12,14,-1,-1,-1,-1,-1,-1,-1,-1],"split_conditions":[1E0,1E0,1E0,-4.3577942E-1,1.0382345E0,1E0,1E0,-3.653848E-2,-1.0293222E-2,-6.4986907E-3,1.9520683E-2,-1.4877381E-2,7.294188E-3,1.8022088E-2,1.773132E-3],"split_indices":[43,36,27,1,1,33,12,0,0,0,0,0,0,0,0],"split_type":[0,0,0,0,0,0,0,0,0,0,0,0,0,0,0],"sum_hessian":[8.506062E2,4.7159448E2,3.7901175E2,1.4461418E2,3.2698032E2,8.194429E1,2.9706744E2,4.144341E1,1.0317077E2,2.939869E2,3.2993397E1,5.3405773E1,2.8538517E1,1.7677768E2,1.2028978E2],"tree_param":{"num_deleted":"0","num_feature":"45","num_nodes":"15","size_leaf_vector":"1"}},{"base_weights":[-3.1673496E-3,-3.2155338E-1,9.0916455E-2,-4.4906566E-1,2.1916574E-2,2.0908823E-2,3.3730474E-1,-2.9044498E-2,-1.2158041E-2,1.977087E-2,-1.4791011E-2,1.5467474E-2,-2.077442E-3,2.0418188E-2,-1.5577394E-2],"categories":[],"categories_nodes":[],"categories_segments":[],"categories_sizes":[],"default_left":[0,0,0,0,0,0,0,0,0,0,0,0,0,0,0],"id":53,"left_children":[1,3,5,7,9,11,13,-1,-1,-1,-1,-1,-1,-1,-1],"loss_changes":[2.5787086E1,8.6097145E0,1.1455406E1,3.7468567E0,6.5390854E0,9.354802E0,6.903591E0,0E0,0E0,0E0,0E0,0E0,0E0,0E0,0E0],"parents":[2147483647,0,0,1,1,2,2,3,3,4,4,5,5,6,6],"right_children":[2,4,6,8,10,12,14,-1,-1,-1,-1,-1,-1,-1,-1],"split_conditions":[1E0,1.2492827E0,2.2731588E0,1E0,1.2064976E0,-1.2367243E0,8.807347E-1,-2.9044498E-2,-1.2158041E-2,1.977087E-2,-1.4791011E-2,1.5467474E-2,-2.077442E-3,2.0418188E-2,-1.5577394E-2],"split_indices":[36,1,3,18,0,0,0,0,0,0,0,0,0,0,0],"split_type":[0,0,0,0,0,0,0,0,0,0,0,0,0,0,0],"sum_hessian":[8.588858E2,1.9535919E2,6.635266E2,1.4224405E2,5.311515E1,5.175556E2,1.4597101E2,8.561226E1,5.663179E1,2.4302725E1,2.8812428E1,9.1418E1,4.261376E2,1.3189696E2,1.4074037E1],"tree_param":{"num_deleted":"0","num_feature":"45","num_nodes":"15","size_leaf_vector":"1"}},{"base_weights":[-2.6053589E-2,8.0167554E-2,-2.376217E-1,4.0220252E-1,4.049258E-3,-6.055978E-2,-3.995077E-1,3.6984142E-2,1.28976945E-2,-5.457167E-3,1.4389249E-2,-6.9714263E-3,1.719689E-2,-2.3290183E-2,2.308349E-2],"categories":[],"categories_nodes":[],"categories_segments":[],"categories_sizes":[],"default_left":[0,0,0,0,0,0,0,0,0,0,0,0,0,0,0],"id":54,"left_children":[1,3,5,7,9,11,13,-1,-1,-1,-1,-1,-1,-1,-1],"loss_changes":[1.9119968E1,1.3887326E1,8.126312E0,5.08193E0,1.47823105E1,4.418145E0,8.685358E0,0E0,0E0,0E0,0E0,0E0,0E0,0E0,0E0],"parents":[2147483647,0,0,1,1,2,2,3,3,4,4,5,5,6,6],"right_children":[2,4,6,8,10,12,14,-1,-1,-1,-1,-1,-1,-1,-1],"split_conditions":[1E0,-1.1552835E0,-7.8880024E-1,1E0,1.0382345E0,3.6853033E-1,1.3622849E0,3.6984142E-2,1.28976945E-2,-5.457167E-3,1.4389249E-2,-6.9714263E-3,1.719689E-2,-2.3290183E-2,2.308349E-2],"split_indices":[39,0,0,12,1,1,1,0,0,0,0,0,0,0,0],"split_type":[0,0,0,0,0,0,0,0,0,0,0,0,0,0,0],"sum_hessian":[8.4894934E2,5.6560126E2,2.8334805E2,1.0731175E2,4.5828952E2,1.3598705E2,1.4736101E2,3.0897333E1,7.641441E1,3.2803833E2,1.302512E2,1.1434702E2,2.1640024E1,1.372539E2,1.0107098E1],"tree_param":{"num_deleted":"0","num_feature":"45","num_nodes":"15","size_leaf_vector":"1"}},{"base_weights":[2.5469605E-2,-1.19763315E-1,2.0389381E-1,-1.7195085E-1,1.9036058E-1,3.0870155E-1,-1.2736002E-1,-1.3852479E-2,-3.8359815E-3,-1.3957088E-2,1.853186E-2,1.8070303E-2,3.5887063E-3,-1.2598152E-2,5.0637224E-3],"categories":[],"categories_nodes":[],"categories_segments":[],"categories_sizes":[],"default_left":[0,0,0,0,0,0,0,0,0,0,0,0,0,0,0],"id":55,"left_children":[1,3,5,7,9,11,13,-1,-1,-1,-1,-1,-1,-1,-1],"loss_changes":[2.1926012E1,7.5839E0,1.3219291E1,3.98108E0,5.83182E0,3.5788174E0,2.6451035E0,0E0,0E0,0E0,0E0,0E0,0E0,0E0,0E0],"parents":[2147483647,0,0,1,1,2,2,3,3,4,4,5,5,6,6],"right_children":[2,4,6,8,10,12,14,-1,-1,-1,-1,-1,-1,-1,-1],"split_conditions":[1E0,2.2731588E0,1E0,1E0,1E0,1E0,1E0,-1.3852479E-2,-3.8359815E-3,-1.3957088E-2,1.853186E-2,1.8070303E-2,3.5887063E-3,-1.2598152E-2,5.0637224E-3],"split_indices":[43,3,39,18,36,29,32,0,0,0,0,0,0,0,0],"split_type":[0,0,0,0,0,0,0,0,0,0,0,0,0,0,0],"sum_hessian":[8.441949E2,4.655651E2,3.786298E2,3.9888623E2,6.667887E1,2.8767752E2,9.095225E1,1.8871169E2,2.1017453E2,1.8347435E1,4.8331436E1,2.3489888E2,5.2778656E1,5.880318E1,3.2149063E1],"tree_param":{"num_deleted":"0","num_feature":"45","num_nodes":"15","size_leaf_vector":"1"}},{"base_weights":[-1.9157117E-2,-1.6211581E-1,1.5456219E-1,2.4535578E-2,-3.156662E-1,2.6636216E-1,-7.525663E-3,-3.2882008E-3,1.9443138E-2,-2.502883E-2,-6.2798E-3,1.070677E-2,3.6138672E-2,4.562383E-3,-1.5938934E-2],"categories":[],"categories_nodes":[],"categories_segments":[],"categories_sizes":[],"default_left":[0,0,0,0,0,0,0,0,0,0,0,0,0,0,0],"id":56,"left_children":[1,3,5,7,9,11,13,-1,-1,-1,-1,-1,-1,-1,-1],"loss_changes":[2.114235E1,1.3390517E1,6.9673595E0,6.989649E0,8.943636E0,5.268118E0,4.8826084E0,0E0,0E0,0E0,0E0,0E0,0E0,0E0,0E0],"parents":[2147483647,0,0,1,1,2,2,3,3,4,4,5,5,6,6],"right_children":[2,4,6,8,10,12,14,-1,-1,-1,-1,-1,-1,-1,-1],"split_conditions":[1E0,-6.2591875E-1,-3.815966E-1,1E0,1E0,1E0,1E0,-3.2882008E-3,1.9443138E-2,-2.502883E-2,-6.2798E-3,1.070677E-2,3.6138672E-2,4.562383E-3,-1.5938934E-2],"split_indices":[43,0,0,14,35,13,12,0,0,0,0,0,0,0,0],"split_type":[0,0,0,0,0,0,0,0,0,0,0,0,0,0,0],"sum_hessian":[8.4931445E2,4.6594308E2,3.833714E2,2.1068307E2,2.5526001E2,2.2649992E2,1.5687146E2,1.6949318E2,4.118991E1,1.2855814E2,1.26701866E2,2.0456131E2,2.193861E1,1.1961846E2,3.7253E1],"tree_param":{"num_deleted":"0","num_feature":"45","num_nodes":"15","size_leaf_vector":"1"}},{"base_weights":[-6.8563507E-3,-2.5555223E-1,6.531257E-2,-5.0789297E-1,-9.317453E-2,-1.5638823E-3,2.9533803E-1,-3.1514045E-2,-1.8368775E-2,-2.4862414E-2,6.031384E-3,-6.4453753E-3,5.5160536E-3,5.4636955E-2,1.1586609E-2],"categories":[],"categories_nodes":[],"categories_segments":[],"categories_sizes":[],"default_left":[0,0,0,0,0,0,0,0,0,0,0,0,0,0,0],"id":57,"left_children":[1,3,5,7,9,11,13,-1,-1,-1,-1,-1,-1,-1,-1],"loss_changes":[1.5017384E1,7.6635656E0,9.977963E0,1.0317516E0,1.0058087E1,7.187923E0,7.15685E0,0E0,0E0,0E0,0E0,0E0,0E0,0E0,0E0],"parents":[2147483647,0,0,1,1,2,2,3,3,4,4,5,5,6,6],"right_children":[2,4,6,8,10,12,14,-1,-1,-1,-1,-1,-1,-1,-1],"split_conditions":[1E0,1E0,2.2731588E0,-5.7703215E-1,1E0,1E0,-7.1163774E-1,-3.1514045E-2,-1.8368775E-2,-2.4862414E-2,6.031384E-3,-6.4453753E-3,5.5160536E-3,5.4636955E-2,1.1586609E-2],"split_indices":[36,35,3,1,37,16,1,0,0,0,0,0,0,0,0],"split_type":[0,0,0,0,0,0,0,0,0,0,0,0,0,0,0],"sum_hessian":[8.3478107E2,1.8718747E2,6.4759357E2,7.2457726E1,1.1472974E2,5.0249414E2,1.4509944E2,3.686426E1,3.5593464E1,3.924093E1,7.5488815E1,2.3494063E2,2.6755353E2,9.52378E0,1.3557567E2],"tree_param":{"num_deleted":"0","num_feature":"45","num_nodes":"15","size_leaf_vector":"1"}},{"base_weights":[2.0991864E-3,2.4097431E-2,-7.048534E-1,-3.918383E-2,2.658227E-1,-3.9760232E-2,-2.102623E-2,-1.6824313E-2,1.1058073E-3,1.6970178E-2,-1.2933773E-2],"categories":[],"categories_nodes":[],"categories_segments":[],"categories_sizes":[],"default_left":[0,0,0,0,0,0,0,0,0,0,0],"id":58,"left_children":[1,3,5,7,9,-1,-1,-1,-1,-1,-1],"loss_changes":[1.2928479E1,1.2341709E1,3.100872E-1,1.1666812E1,6.5476055E0,0E0,0E0,0E0,0E0,0E0,0E0],"parents":[2147483647,0,0,1,1,2,2,3,3,4,4],"right_children":[2,4,6,8,10,-1,-1,-1,-1,-1,-1],"split_conditions":[1.5729809E0,2.2731588E0,1E0,-1.1569993E0,1.0843365E0,-3.9760232E-2,-2.102623E-2,-1.6824313E-2,1.1058073E-3,1.6970178E-2,-1.2933773E-2],"split_indices":[0,3,18,1,0,0,0,0,0,0,0],"split_type":[0,0,0,0,0,0,0,0,0,0,0],"sum_hessian":[8.292295E2,8.051418E2,2.4087685E1,6.38759E2,1.6638281E2,1.6915625E1,7.172059E0,1.0842293E2,5.3033606E2,1.4622243E2,2.0160372E1],"tree_param":{"num_deleted":"0","num_feature":"45","num_nodes":"11","size_leaf_vector":"1"}},{"base_weights":[9.220237E-4,-2.4854961E-1,7.2723225E-2,-1.6857971E-1,-6.515736E-1,4.0290654E-3,3.1246433E-1,-2.0387638E-2,-2.5678545E-3,-2.865927E-2,-4.3325208E-2,-3.8683023E-3,8.390959E-3,3.958645E-2,1.1841125E-2],"categories":[],"categories_nodes":[],"categories_segments":[],"categories_sizes":[],"default_left":[0,0,0,0,0,0,0,0,0,0,0,0,0,0,0],"id":59,"left_children":[1,3,5,7,9,11,13,-1,-1,-1,-1,-1,-1,-1,-1],"loss_changes":[1.4980088E1,5.91407E0,1.0693336E1,4.389424E0,1.8832207E-2,6.7557373E0,5.055212E0,0E0,0E0,0E0,0E0,0E0,0E0,0E0,0E0],"parents":[2147483647,0,0,1,1,2,2,3,3,4,4,5,5,6,6],"right_children":[2,4,6,8,10,12,14,-1,-1,-1,-1,-1,-1,-1,-1],"split_conditions":[1E0,1E0,2.2731588E0,1E0,-4.1310006E-1,1E0,-9.466725E-1,-2.0387638E-2,-2.5678545E-3,-2.865927E-2,-4.3325208E-2,-3.8683023E-3,8.390959E-3,3.958645E-2,1.1841125E-2],"split_indices":[36,17,3,37,2,32,2,0,0,0,0,0,0,0,0],"split_type":[0,0,0,0,0,0,0,0,0,0,0,0,0,0,0],"sum_hessian":[8.3428973E2,1.8590509E2,6.4838464E2,1.5630801E2,2.9597082E1,5.047679E2,1.4361674E2,5.059631E1,1.057117E2,2.4374277E1,5.222805E0,3.375506E2,1.6721732E2,1.8286585E1,1.2533017E2],"tree_param":{"num_deleted":"0","num_feature":"45","num_nodes":"15","size_leaf_vector":"1"}},{"base_weights":[-5.5371826E-3,-1.578053E-1,1.1527924E-1,-3.9689612E-1,-6.6636175E-2,2.7266E-1,5.193956E-3,-2.6587952E-2,-9.565583E-3,-9.206241E-3,1.7353669E-3,2.2845272E-2,-2.486104E-3,-6.0114968E-3,6.75388E-3],"categories":[],"categories_nodes":[],"categories_segments":[],"categories_sizes":[],"default_left":[0,0,0,0,0,0,0,0,0,0,0,0,0,0,0],"id":60,"left_children":[1,3,5,7,9,11,13,-1,-1,-1,-1,-1,-1,-1,-1],"loss_changes":[1.5566223E1,8.133176E0,8.173162E0,2.7577362E0,3.247397E0,1.1556436E1,4.5555935E0,0E0,0E0,0E0,0E0,0E0,0E0,0E0,0E0],"parents":[2147483647,0,0,1,1,2,2,3,3,4,4,5,5,6,6],"right_children":[2,4,6,8,10,12,14,-1,-1,-1,-1,-1,-1,-1,-1],"split_conditions":[1E0,1E0,1E0,1E0,1E0,1E0,1E0,-2.6587952E-2,-9.565583E-3,-9.206241E-3,1.7353669E-3,2.2845272E-2,-2.486104E-3,-6.0114968E-3,6.75388E-3],"split_indices":[21,8,33,27,18,12,43,0,0,0,0,0,0,0,0],"split_type":[0,0,0,0,0,0,0,0,0,0,0,0,0,0,0],"sum_hessian":[8.4416296E2,3.7333408E2,4.708289E2,1.0213413E2,2.7119995E2,1.9317877E2,2.7765012E2,6.071722E1,4.141691E1,1.2521731E2,1.4598264E2,1.2265984E2,7.051893E1,1.4128789E2,1.3636224E2],"tree_param":{"num_deleted":"0","num_feature":"45","num_nodes":"15","size_leaf_vector":"1"}},{"base_weights":[6.288184E-3,1.2804997E-1,-1.7463975E-1,3.1393445E-1,9.415579E-3,-3.8978514E-1,-3.5111956E-2,6.180224E-3,3.1079862E-2,1.8191623E-2,-6.06304E-3,-1.5111791E-2,-3.2839973E-2,8.758086E-4,-2.7352408E-2],"categories":[],"categories_nodes":[],"categories_segments":[],"categories_sizes":[],"default_left":[0,0,0,0,0,0,0,0,0,0,0,0,0,0,0],"id":61,"left_children":[1,3,5,7,9,11,13,-1,-1,-1,-1,-1,-1,-1,-1],"loss_changes":[1.8412115E1,1.1013014E1,1.00791235E1,1.1317232E1,1.4214293E1,2.8911762E0,5.534054E0,0E0,0E0,0E0,0E0,0E0,0E0,0E0,0E0],"parents":[2147483647,0,0,1,1,2,2,3,3,4,4,5,5,6,6],"right_children":[2,4,6,8,10,12,14,-1,-1,-1,-1,-1,-1,-1,-1],"split_conditions":[-2.594355E-1,1E0,1E0,1E0,-1.2367243E0,1.0028958E0,1.5729809E0,6.180224E-3,3.1079862E-2,1.8191623E-2,-6.06304E-3,-1.5111791E-2,-3.2839973E-2,8.758086E-4,-2.7352408E-2],"split_indices":[0,12,35,35,0,0,0,0,0,0,0,0,0,0,0],"split_type":[0,0,0,0,0,0,0,0,0,0,0,0,0,0,0],"sum_hessian":[8.337553E2,4.985386E2,3.3521674E2,1.9357922E2,3.0495938E2,1.3116806E2,2.0404869E2,1.2046038E2,7.311884E1,8.167054E1,2.2328882E2,1.0038536E2,3.0782703E1,1.8590323E2,1.8145462E1],"tree_param":{"num_deleted":"0","num_feature":"45","num_nodes":"15","size_leaf_vector":"1"}},{"base_weights":[1.4738916E-2,-1.8426704E-1,1.1638446E-1,-1.1027423E-1,-5.2313215E-1,1.9092882E-1,-8.4314644E-2,-8.567424E-3,7.0566535E-3,-3.2641124E-2,-5.3922297E-3,8.6693413E-4,1.4037155E-2,1.7876225E-3,-1.786156E-2],"categories":[],"categories_nodes":[],"categories_segments":[],"categories_sizes":[],"default_left":[0,0,0,0,0,0,0,0,0,0,0,0,0,0,0],"id":62,"left_children":[1,3,5,7,9,11,13,-1,-1,-1,-1,-1,-1,-1,-1],"loss_changes":[1.6728832E1,6.9535875E0,8.204582E0,3.5676951E0,2.614357E0,6.222083E0,4.892803E0,0E0,0E0,0E0,0E0,0E0,0E0,0E0,0E0],"parents":[2147483647,0,0,1,1,2,2,3,3,4,4,5,5,6,6],"right_children":[2,4,6,8,10,12,14,-1,-1,-1,-1,-1,-1,-1,-1],"split_conditions":[1E0,1E0,1E0,1.0947356E0,1.3872119E0,3.0205846E-1,1E0,-8.567424E-3,7.0566535E-3,-3.2641124E-2,-5.3922297E-3,8.6693413E-4,1.4037155E-2,1.7876225E-3,-1.786156E-2],"split_indices":[27,38,39,1,1,1,23,0,0,0,0,0,0,0,0],"split_type":[0,0,0,0,0,0,0,0,0,0,0,0,0,0,0],"sum_hessian":[8.2495056E2,2.78628E2,5.463226E2,2.2977988E2,4.8848118E1,3.983972E2,1.4792537E2,1.8512581E2,4.4654068E1,3.6787693E1,1.2060424E1,1.362502E2,2.6214697E2,1.0333369E2,4.459169E1],"tree_param":{"num_deleted":"0","num_feature":"45","num_nodes":"15","size_leaf_vector":"1"}},{"base_weights":[8.307104E-3,4.328073E-2,-4.3878546E-1,9.534231E-2,-1.5411085E-1,-5.6710184E-1,-1.4944705E-1,2.5541487E-4,1.1721943E-2,-1.668718E-2,1.124221E-3,-3.8862254E-2,-1.849733E-2,2.001225E-2,-2.1715023E-2],"categories":[],"categories_nodes":[],"categories_segments":[],"categories_sizes":[],"default_left":[0,0,0,0,0,0,0,0,0,0,0,0,0,0,0],"id":63,"left_children":[1,3,5,7,9,11,13,-1,-1,-1,-1,-1,-1,-1,-1],"loss_changes":[1.2969854E1,7.918051E0,2.1494951E0,7.6447725E0,5.111279E0,1.4248867E0,3.281436E0,0E0,0E0,0E0,0E0,0E0,0E0,0E0,0E0],"parents":[2147483647,0,0,1,1,2,2,3,3,4,4,5,5,6,6],"right_children":[2,4,6,8,10,12,14,-1,-1,-1,-1,-1,-1,-1,-1],"split_conditions":[1E0,1E0,1E0,1E0,1E0,1E0,1E0,2.5541487E-4,1.1721943E-2,-1.668718E-2,1.124221E-3,-3.8862254E-2,-1.849733E-2,2.001225E-2,-2.1715023E-2],"split_indices":[38,9,18,32,21,14,29,0,0,0,0,0,0,0,0],"split_type":[0,0,0,0,0,0,0,0,0,0,0,0,0,0,0],"sum_hessian":[8.272484E2,7.680697E2,5.9178726E1,6.081805E2,1.5988924E2,4.0332153E1,1.8846573E1,3.695103E2,2.3867015E2,7.88218E1,8.106744E1,1.809878E1,2.2233372E1,6.294587E0,1.2551987E1],"tree_param":{"num_deleted":"0","num_feature":"45","num_nodes":"15","size_leaf_vector":"1"}},{"base_weights":[1.8610813E-2,1.6744433E-1,-1.2856352E-1,1.346962E-1,7.672741E-1,-2.3709384E-1,1.1837184E-1,1.450435E-2,2.072986E-3,5.8796953E-2,3.7423645E-3,-3.9802507E-2,-9.5119355E-3,2.3508891E-2,-3.3299753E-3],"categories":[],"categories_nodes":[],"categories_segments":[],"categories_sizes":[],"default_left":[0,0,0,0,0,0,0,0,0,0,0,0,0,0,0],"id":64,"left_children":[1,3,5,7,9,11,13,-1,-1,-1,-1,-1,-1,-1,-1],"loss_changes":[1.821301E1,8.016265E0,1.123418E1,5.6842055E0,5.907015E0,7.4647694E0,8.382437E0,0E0,0E0,0E0,0E0,0E0,0E0,0E0,0E0],"parents":[2147483647,0,0,1,1,2,2,3,3,4,4,5,5,6,6],"right_children":[2,4,6,8,10,12,14,-1,-1,-1,-1,-1,-1,-1,-1],"split_conditions":[-5.851984E-1,1.0947356E0,1.1130154E0,-1.1960039E0,1.2210321E0,-1.3414588E0,4.7353107E-1,1.450435E-2,2.072986E-3,5.8796953E-2,3.7423645E-3,-3.9802507E-2,-9.5119355E-3,2.3508891E-2,-3.3299753E-3],"split_indices":[0,1,1,0,1,1,0,0,0,0,0,0,0,0,0],"split_type":[0,0,0,0,0,0,0,0,0,0,0,0,0,0,0],"sum_hessian":[8.294917E2,4.1235266E2,4.1713907E2,3.921666E2,2.0186058E1,2.898064E2,1.2733267E2,1.462727E2,2.458939E2,1.2254978E1,7.93108E0,2.1177744E1,2.6862866E2,4.3347E1,8.3985664E1],"tree_param":{"num_deleted":"0","num_feature":"45","num_nodes":"15","size_leaf_vector":"1"}},{"base_weights":[-3.9428685E-2,1.8022028E-1,-1.3069624E-1,1.5124072E-1,7.16548E-1,-2.74178E-1,8.55199E-3,1.5545832E-2,1.3104744E-3,5.2278247E-2,1.7307905E-2,-9.684824E-3,-3.2362524E-2,2.3203825E-3,-2.8653434E-2],"categories":[],"categories_nodes":[],"categories_segments":[],"categories_sizes":[],"default_left":[0,0,0,0,0,0,0,0,0,0,0,0,0,0,0],"id":65,"left_children":[1,3,5,7,9,11,13,-1,-1,-1,-1,-1,-1,-1,-1],"loss_changes":[1.6706488E1,3.6949964E0,1.1760158E1,4.652156E0,1.1341953E0,8.578106E0,6.623551E0,0E0,0E0,0E0,0E0,0E0,0E0,0E0,0E0],"parents":[2147483647,0,0,1,1,2,2,3,3,4,4,5,5,6,6],"right_children":[2,4,6,8,10,12,14,-1,-1,-1,-1,-1,-1,-1,-1],"split_conditions":[-1.0331224E0,-8.1519985E-1,1E0,-1.2367243E0,-7.9524493E-1,7.1785325E-1,1.5729809E0,1.5545832E-2,1.3104744E-3,5.2278247E-2,1.7307905E-2,-9.684824E-3,-3.2362524E-2,2.3203825E-3,-2.8653434E-2],"split_indices":[0,2,32,0,2,0,0,0,0,0,0,0,0,0,0],"split_type":[0,0,0,0,0,0,0,0,0,0,0,0,0,0,0],"sum_hessian":[8.311984E2,2.4370688E2,5.874915E2,2.324299E2,1.1276962E1,2.8887006E2,2.986215E2,1.014204E2,1.310095E2,5.0066695E0,6.270293E0,2.3886073E2,5.0009323E1,2.8123697E2,1.7384523E1],"tree_param":{"num_deleted":"0","num_feature":"45","num_nodes":"15","size_leaf_vector":"1"}},{"base_weights":[-1.0337281E-2,3.659063E-1,-6.8097964E-2,5.44197E-1,1.3053255E-1,-2.8178422E-2,-4.7970295E-1,2.3208106E-2,4.1446123E-2,-5.3729857E-3,1.6721485E-2,1.7044295E-3,-9.788319E-3,-1.4283239E-2,-3.7501022E-2],"categories":[],"categories_nodes":[],"categories_segments":[],"categories_sizes":[],"default_left":[0,0,0,0,0,0,0,0,0,0,0,0,0,0,0],"id":66,"left_children":[1,3,5,7,9,11,13,-1,-1,-1,-1,-1,-1,-1,-1],"loss_changes":[1.8086826E1,4.577361E0,1.1839022E1,1.0443096E0,2.416481E0,6.879675E0,3.1275845E0,0E0,0E0,0E0,0E0,0E0,0E0,0E0,0E0],"parents":[2147483647,0,0,1,1,2,2,3,3,4,4,5,5,6,6],"right_children":[2,4,6,8,10,12,14,-1,-1,-1,-1,-1,-1,-1,-1],"split_conditions":[-1.2367243E0,1E0,1E0,2.2731588E0,1E0,1E0,-5.4447806E-1,2.3208106E-2,4.1446123E-2,-5.3729857E-3,1.6721485E-2,1.7044295E-3,-9.788319E-3,-1.4283239E-2,-3.7501022E-2],"split_indices":[0,39,19,3,18,39,0,0,0,0,0,0,0,0,0],"split_type":[0,0,0,0,0,0,0,0,0,0,0,0,0,0,0],"sum_hessian":[8.301171E2,1.0976847E2,7.203487E2,6.171135E1,4.8057125E1,6.576362E2,6.2712433E1,5.0223873E1,1.1487477E1,2.2392817E1,2.5664307E1,4.8006537E2,1.7757088E2,3.7704395E1,2.500804E1],"tree_param":{"num_deleted":"0","num_feature":"45","num_nodes":"15","size_leaf_vector":"1"}},{"base_weights":[1.21138E-2,2.3193906E-1,-7.4132666E-2,-6.679774E-2,3.3710477E-1,-2.647961E-1,2.7483992E-2,1.1096662E-2,-2.0130996E-2,1.4413707E-2,4.6797343E-2,-1.732955E-2,-9.681126E-4,4.973531E-3,-9.271047E-3],"categories":[],"categories_nodes":[],"categories_segments":[],"categories_sizes":[],"default_left":[0,0,0,0,0,0,0,0,0,0,0,0,0,0,0],"id":67,"left_children":[1,3,5,7,9,11,13,-1,-1,-1,-1,-1,-1,-1,-1],"loss_changes":[1.57539835E1,7.3782806E0,1.1572013E1,6.081339E0,4.7988834E0,4.161277E0,6.0000577E0,0E0,0E0,0E0,0E0,0E0,0E0,0E0,0E0],"parents":[2147483647,0,0,1,1,2,2,3,3,4,4,5,5,6,6],"right_children":[2,4,6,8,10,12,14,-1,-1,-1,-1,-1,-1,-1,-1],"split_conditions":[-1.0738428E0,-1.1304106E0,1E0,-9.960741E-1,1E0,1E0,1E0,1.1096662E-2,-2.0130996E-2,1.4413707E-2,4.6797343E-2,-1.732955E-2,-9.681126E-4,4.973531E-3,-9.271047E-3],"split_indices":[0,1,16,2,10,10,29,0,0,0,0,0,0,0,0],"split_type":[0,0,0,0,0,0,0,0,0,0,0,0,0,0,0],"sum_hessian":[8.290366E2,2.331342E2,5.9590247E2,6.0797077E1,1.7233713E2,2.0661835E2,3.892841E2,3.2872932E1,2.792414E1,1.6071364E2,1.1623481E1,1.546624E2,5.1955956E1,2.9131766E2,9.796644E1],"tree_param":{"num_deleted":"0","num_feature":"45","num_nodes":"15","size_leaf_vector":"1"}},{"base_weights":[-2.3142311E-3,1.1840817E-1,-1.24485515E-1,6.921043E-3,2.3663215E-1,-2.4692038E-1,3.86278E-2,3.7795447E-3,-1.7020792E-2,3.210855E-2,7.1976483E-3,-2.2828687E-2,-2.854646E-3,7.5979005E-3,-1.4281807E-2],"categories":[],"categories_nodes":[],"categories_segments":[],"categories_sizes":[],"default_left":[0,0,0,0,0,0,0,0,0,0,0,0,0,0,0],"id":68,"left_children":[1,3,5,7,9,11,13,-1,-1,-1,-1,-1,-1,-1,-1],"loss_changes":[1.2215634E1,5.4893746E0,8.230364E0,5.164326E0,7.505831E0,9.337505E0,6.561391E0,0E0,0E0,0E0,0E0,0E0,0E0,0E0,0E0],"parents":[2147483647,0,0,1,1,2,2,3,3,4,4,5,5,6,6],"right_children":[2,4,6,8,10,12,14,-1,-1,-1,-1,-1,-1,-1,-1],"split_conditions":[-5.851984E-1,1E0,1E0,1E0,-9.5510477E-1,1E0,1E0,3.7795447E-3,-1.7020792E-2,3.210855E-2,7.1976483E-3,-2.2828687E-2,-2.854646E-3,7.5979005E-3,-1.4281807E-2],"split_indices":[0,16,43,23,2,35,12,0,0,0,0,0,0,0,0],"split_type":[0,0,0,0,0,0,0,0,0,0,0,0,0,0,0],"sum_hessian":[8.26246E2,4.1560278E2,4.1064316E2,2.1444048E2,2.0116231E2,2.3427766E2,1.763655E2,1.7969621E2,3.4744267E1,3.631757E1,1.6484474E2,1.106576E2,1.2362007E2,1.3108328E2,4.5282215E1],"tree_param":{"num_deleted":"0","num_feature":"45","num_nodes":"15","size_leaf_vector":"1"}},{"base_weights":[2.3327207E-3,5.4151844E-2,-3.207818E-1,1.6660823E-1,-5.1116616E-2,-2.4370179E-1,-4.075729E-2,-7.075613E-3,1.2276604E-2,1.4726142E-2,-7.7252537E-3,-1.8760838E-2,8.247799E-3],"categories":[],"categories_nodes":[],"categories_segments":[],"categories_sizes":[],"default_left":[0,0,0,0,0,0,0,0,0,0,0,0,0],"id":69,"left_children":[1,3,5,7,9,11,-1,-1,-1,-1,-1,-1,-1],"loss_changes":[1.3766933E1,8.396383E0,4.1316566E0,8.371284E0,1.3150829E1,5.422262E0,0E0,0E0,0E0,0E0,0E0,0E0,0E0],"parents":[2147483647,0,0,1,1,2,2,3,3,4,4,5,5],"right_children":[2,4,6,8,10,12,-1,-1,-1,-1,-1,-1,-1],"split_conditions":[9.621754E-1,1E0,1.6137012E0,1E0,-1.2367243E0,2.0127208E0,-4.075729E-2,-7.075613E-3,1.2276604E-2,1.4726142E-2,-7.7252537E-3,-1.8760838E-2,8.247799E-3],"split_indices":[0,12,0,8,0,2,0,0,0,0,0,0,0],"split_type":[0,0,0,0,0,0,0,0,0,0,0,0,0],"sum_hessian":[8.201875E2,7.075477E2,1.12639755E2,3.418127E2,3.6573502E2,9.873777E1,1.3901989E1,6.953878E1,2.7227396E2,8.378464E1,2.8195038E2,7.4760155E1,2.3977615E1],"tree_param":{"num_deleted":"0","num_feature":"45","num_nodes":"13","size_leaf_vector":"1"}},{"base_weights":[-1.9334847E-2,1.8613248E-1,-7.8248E-2,1.2829672E-2,3.2400945E-1,-4.692811E-2,-5.633221E-1,-3.4582962E-3,1.998543E-2,-2.903017E-3,2.0704478E-2,1.617562E-3,-8.897671E-3,-3.3645254E-2,-1.8843835E-2],"categories":[],"categories_nodes":[],"categories_segments":[],"categories_sizes":[],"default_left":[0,0,0,0,0,0,0,0,0,0,0,0,0,0,0],"id":70,"left_children":[1,3,5,7,9,11,13,-1,-1,-1,-1,-1,-1,-1,-1],"loss_changes":[9.944833E0,4.37095E0,9.670333E0,2.6342545E0,3.53222E0,6.244977E0,5.354605E-1,0E0,0E0,0E0,0E0,0E0,0E0,0E0,0E0],"parents":[2147483647,0,0,1,1,2,2,3,3,4,4,5,5,6,6],"right_children":[2,4,6,8,10,12,14,-1,-1,-1,-1,-1,-1,-1,-1],"split_conditions":[-9.2576844E-1,1E0,1E0,1E0,1E0,1E0,-7.2072315E-1,-3.4582962E-3,1.998543E-2,-2.903017E-3,2.0704478E-2,1.617562E-3,-8.897671E-3,-3.3645254E-2,-1.8843835E-2],"split_indices":[2,40,17,16,6,12,2,0,0,0,0,0,0,0,0],"split_type":[0,0,0,0,0,0,0,0,0,0,0,0,0,0,0],"sum_hessian":[8.193628E2,1.821013E2,6.3726154E2,8.116941E1,1.00931885E2,5.996411E2,3.762042E1,6.765232E1,1.3517096E1,1.932432E1,8.160756E1,3.7406128E2,2.255798E2,2.2050905E1,1.5569512E1],"tree_param":{"num_deleted":"0","num_feature":"45","num_nodes":"15","size_leaf_vector":"1"}},{"base_weights":[-2.8117674E-3,3.699224E-2,-3.2647645E-1,-1.7488321E-2,2.360326E-1,-7.159805E-1,-1.6950834E-1,6.5526026E-3,-4.751967E-3,3.2752067E-2,5.444385E-3,-5.306193E-2,-2.681025E-2,-2.1043291E-2,1.6213915E-3],"categories":[],"categories_nodes":[],"categories_segments":[],"categories_sizes":[],"default_left":[0,0,0,0,0,0,0,0,0,0,0,0,0,0,0],"id":71,"left_children":[1,3,5,7,9,11,13,-1,-1,-1,-1,-1,-1,-1,-1],"loss_changes":[1.0452895E1,7.839573E0,5.311056E0,6.5580997E0,8.204733E0,9.9582386E-1,3.2946968E0,0E0,0E0,0E0,0E0,0E0,0E0,0E0,0E0],"parents":[2147483647,0,0,1,1,2,2,3,3,4,4,5,5,6,6],"right_children":[2,4,6,8,10,12,14,-1,-1,-1,-1,-1,-1,-1,-1],"split_conditions":[1.1250569E0,9.6677727E-1,1E0,-1.1145631E0,-7.073595E-1,1.2879384E0,1E0,6.5526026E-3,-4.751967E-3,3.2752067E-2,5.444385E-3,-5.306193E-2,-2.681025E-2,-2.1043291E-2,1.6213915E-3],"split_indices":[0,1,32,0,0,0,18,0,0,0,0,0,0,0,0],"split_type":[0,0,0,0,0,0,0,0,0,0,0,0,0,0,0],"sum_hessian":[8.094242E2,7.2157166E2,8.7852554E1,5.672251E2,1.5434653E2,2.421173E1,6.3640827E1,1.9432578E2,3.7289932E2,3.4965393E1,1.1938114E2,6.6114116E0,1.7600317E1,2.7868153E1,3.5772675E1],"tree_param":{"num_deleted":"0","num_feature":"45","num_nodes":"15","size_leaf_vector":"1"}},{"base_weights":[7.922366E-4,-1.0524224E-1,1.2530063E-1,-1.5318015E-1,1.5360156E-1,3.160418E-1,3.1264875E-2,-1.1555164E-2,1.3324887E-3,1.3894257E-2,-1.3015555E-2,9.877126E-4,2.2731746E-2,6.58337E-3,-8.545793E-3],"categories":[],"categories_nodes":[],"categories_segments":[],"categories_sizes":[],"default_left":[0,0,0,0,0,0,0,0,0,0,0,0,0,0,0],"id":72,"left_children":[1,3,5,7,9,11,13,-1,-1,-1,-1,-1,-1,-1,-1],"loss_changes":[1.0840033E1,5.5259366E0,6.7636385E0,5.2560863E0,3.6626003E0,5.1071024E0,5.1795654E0,0E0,0E0,0E0,0E0,0E0,0E0,0E0,0E0],"parents":[2147483647,0,0,1,1,2,2,3,3,4,4,5,5,6,6],"right_children":[2,4,6,8,10,12,14,-1,-1,-1,-1,-1,-1,-1,-1],"split_conditions":[1E0,2.2731588E0,-7.9983634E-1,1E0,1.1422993E0,1E0,1E0,-1.1555164E-2,1.3324887E-3,1.3894257E-2,-1.3015555E-2,9.877126E-4,2.2731746E-2,6.58337E-3,-8.545793E-3],"split_indices":[43,3,2,41,2,40,12,0,0,0,0,0,0,0,0],"split_type":[0,0,0,0,0,0,0,0,0,0,0,0,0,0,0],"sum_hessian":[8.190801E2,4.4244098E2,3.766391E2,3.736493E2,6.879171E1,1.2358986E2,2.5304924E2,2.6048984E2,1.1315944E2,5.315865E1,1.5633058E1,3.975125E1,8.383861E1,1.6931602E2,8.373321E1],"tree_param":{"num_deleted":"0","num_feature":"45","num_nodes":"15","size_leaf_vector":"1"}},{"base_weights":[3.097197E-2,7.930938E-2,-2.5294873E-1,-3.4898296E-2,2.34011E-1,-4.8806953E-1,-1.2835017E-2,4.5719664E-3,-8.414214E-3,2.5261072E-2,6.80934E-3,-3.6435597E-2,-1.1365791E-2,-1.3402643E-2,3.239406E-2],"categories":[],"categories_nodes":[],"categories_segments":[],"categories_sizes":[],"default_left":[0,0,0,0,0,0,0,0,0,0,0,0,0,0,0],"id":73,"left_children":[1,3,5,7,9,11,13,-1,-1,-1,-1,-1,-1,-1,-1],"loss_changes":[1.1070954E1,1.2178678E1,6.620731E0,6.708116E0,7.696409E0,3.5541773E0,1.0139892E1,0E0,0E0,0E0,0E0,0E0,0E0,0E0,0E0],"parents":[2147483647,0,0,1,1,2,2,3,3,4,4,5,5,6,6],"right_children":[2,4,6,8,10,12,14,-1,-1,-1,-1,-1,-1,-1,-1],"split_conditions":[9.214551E-1,4.7156173E-1,1E0,-8.6062807E-1,-6.131787E-1,1.6458952E0,2.0127208E0,4.5719664E-3,-8.414214E-3,2.5261072E-2,6.80934E-3,-3.6435597E-2,-1.1365791E-2,-1.3402643E-2,3.239406E-2],"split_indices":[0,1,5,2,2,2,2,0,0,0,0,0,0,0,0],"split_type":[0,0,0,0,0,0,0,0,0,0,0,0,0,0,0],"sum_hessian":[8.042244E2,6.8784045E2,1.1638395E2,3.9615527E2,2.9168518E2,5.82816E1,5.810235E1,2.0361455E2,1.9254073E2,7.621635E1,2.1546883E2,2.9376347E1,2.8905254E1,4.234129E1,1.5761063E1],"tree_param":{"num_deleted":"0","num_feature":"45","num_nodes":"15","size_leaf_vector":"1"}},{"base_weights":[3.2577496E-3,2.275206E-2,-7.244656E-1,1.05002075E-1,-1.544684E-1,-4.2610005E-2,-2.1210423E-2,8.614741E-3,-6.4253877E-3,-8.876867E-3,2.8939238E-2],"categories":[],"categories_nodes":[],"categories_segments":[],"categories_sizes":[],"default_left":[0,0,0,0,0,0,0,0,0,0,0],"id":74,"left_children":[1,3,5,7,9,-1,-1,-1,-1,-1,-1],"loss_changes":[1.1613814E1,1.1635561E1,4.5764446E-1,8.58671E0,4.3838654E0,0E0,0E0,0E0,0E0,0E0,0E0],"parents":[2147483647,0,0,1,1,2,2,3,3,4,4],"right_children":[2,4,6,8,10,-1,-1,-1,-1,-1,-1],"split_conditions":[1.5729809E0,1E0,1E0,4.7353107E-1,1.3622849E0,-4.2610005E-2,-2.1210423E-2,8.614741E-3,-6.4253877E-3,-8.876867E-3,2.8939238E-2],"split_indices":[0,39,18,0,1,0,0,0,0,0,0],"split_type":[0,0,0,0,0,0,0,0,0,0,0],"sum_hessian":[8.1649274E2,7.961346E2,2.035818E1,5.4404474E2,2.5208981E2,1.2992649E1,7.365529E0,4.2253964E2,1.2150511E2,2.4513545E2,6.9543514E0],"tree_param":{"num_deleted":"0","num_feature":"45","num_nodes":"11","size_leaf_vector":"1"}},{"base_weights":[1.635213E-2,-5.910353E-2,1.0428976E-1,-1.3842435E-1,8.128192E-2,1.8162371E-1,-5.249307E-2,-2.2363963E-2,-3.615429E-3,-1.9597486E-4,1.9557571E-2,7.384099E-3,2.5132447E-2,-4.9306224E-3,2.4010202E-2],"categories":[],"categories_nodes":[],"categories_segments":[],"categories_sizes":[],"default_left":[0,0,0,0,0,0,0,0,0,0,0,0,0,0,0],"id":75,"left_children":[1,3,5,7,9,11,13,-1,-1,-1,-1,-1,-1,-1,-1],"loss_changes":[5.3912635E0,4.8821726E0,4.558079E0,5.6826487E0,4.1875544E0,2.6656399E0,3.1108367E0,0E0,0E0,0E0,0E0,0E0,0E0,0E0,0E0],"parents":[2147483647,0,0,1,1,2,2,3,3,4,4,5,5,6,6],"right_children":[2,4,6,8,10,12,14,-1,-1,-1,-1,-1,-1,-1,-1],"split_conditions":[1E0,1E0,1E0,1E0,2.2731588E0,1E0,1.452022E0,-2.2363963E-2,-3.615429E-3,-1.9597486E-4,1.9557571E-2,7.384099E-3,2.5132447E-2,-4.9306224E-3,2.4010202E-2],"split_indices":[43,35,23,36,3,13,1,0,0,0,0,0,0,0,0],"split_type":[0,0,0,0,0,0,0,0,0,0,0,0,0,0,0],"sum_hessian":[8.1057214E2,4.3642322E2,3.741489E2,2.7886975E2,1.5755347E2,2.5045314E2,1.2369577E2,4.81545E1,2.3071526E2,1.2434973E2,3.320373E1,2.2782538E2,2.2627762E1,1.145898E2,9.105971E0],"tree_param":{"num_deleted":"0","num_feature":"45","num_nodes":"15","size_leaf_vector":"1"}},{"base_weights":[1.809879E-2,1.1009052E-1,-1.0405464E-1,2.9105234E-1,-3.6899385E-3,-2.757341E-1,1.1476486E-2,-4.679436E-3,1.843725E-2,1.1468161E-2,-4.7759903E-3,-6.896071E-3,-2.4502648E-2,2.3493438E-3,-2.9295726E-2],"categories":[],"categories_nodes":[],"categories_segments":[],"categories_sizes":[],"default_left":[0,0,0,0,0,0,0,0,0,0,0,0,0,0,0],"id":76,"left_children":[1,3,5,7,9,11,13,-1,-1,-1,-1,-1,-1,-1,-1],"loss_changes":[9.122646E0,9.534056E0,6.9217796E0,5.376034E0,6.1266E0,4.077878E0,4.4710674E0,0E0,0E0,0E0,0E0,0E0,0E0,0E0,0E0],"parents":[2147483647,0,0,1,1,2,2,3,3,4,4,5,5,6,6],"right_children":[2,4,6,8,10,12,14,-1,-1,-1,-1,-1,-1,-1,-1],"split_conditions":[-3.815966E-1,1E0,1E0,1E0,-1.2367243E0,1E0,1.6137012E0,-4.679436E-3,1.843725E-2,1.1468161E-2,-4.7759903E-3,-6.896071E-3,-2.4502648E-2,2.3493438E-3,-2.9295726E-2],"split_indices":[0,12,32,8,0,12,0,0,0,0,0,0,0,0,0],"split_type":[0,0,0,0,0,0,0,0,0,0,0,0,0,0,0],"sum_hessian":[8.09813E2,4.619927E2,3.478203E2,1.777433E2,2.842494E2,1.3935373E2,2.0846658E2,2.9834394E1,1.479089E2,7.992123E1,2.0432817E2,8.581558E1,5.353815E1,1.9763974E2,1.0826845E1],"tree_param":{"num_deleted":"0","num_feature":"45","num_nodes":"15","size_leaf_vector":"1"}},{"base_weights":[-8.2765445E-3,1.6970983E-2,-3.5784394E-1,-5.4876067E-2,1.2688555E-1,-5.458951E-1,3.4020644E-2,7.976344E-3,-5.497485E-3,1.202396E-2,-2.8053636E-3,-3.2783788E-2,5.948811E-4,2.1175357E-2,-3.762771E-2],"categories":[],"categories_nodes":[],"categories_segments":[],"categories_sizes":[],"default_left":[0,0,0,0,0,0,0,0,0,0,0,0,0,0,0],"id":77,"left_children":[1,3,5,7,9,11,13,-1,-1,-1,-1,-1,-1,-1,-1],"loss_changes":[7.175393E0,5.997329E0,4.054109E0,5.442257E0,6.25258E0,2.2773895E0,6.047526E0,0E0,0E0,0E0,0E0,0E0,0E0,0E0,0E0],"parents":[2147483647,0,0,1,1,2,2,3,3,4,4,5,5,6,6],"right_children":[2,4,6,8,10,12,14,-1,-1,-1,-1,-1,-1,-1,-1],"split_conditions":[1E0,1E0,1.8289548E0,-1.2367243E0,4.1025966E-1,1E0,2.403607E0,7.976344E-3,-5.497485E-3,1.202396E-2,-2.8053636E-3,-3.2783788E-2,5.948811E-4,2.1175357E-2,-3.762771E-2],"split_indices":[38,35,2,0,2,43,2,0,0,0,0,0,0,0,0],"split_type":[0,0,0,0,0,0,0,0,0,0,0,0,0,0,0],"sum_hessian":[8.11322E2,7.575587E2,5.3763275E1,4.584124E2,2.991463E2,3.6063675E1,1.7699598E1,9.3299324E1,3.651131E2,1.8437842E2,1.147679E2,2.9986475E1,6.0772E0,1.2146583E1,5.5530157E0],"tree_param":{"num_deleted":"0","num_feature":"45","num_nodes":"15","size_leaf_vector":"1"}},{"base_weights":[2.6903803E-2,5.4142233E-2,-3.560649E-1,-3.4085516E-2,1.8557808E-1,-4.6506414E-1,-9.696123E-3,3.6773104E-3,-1.2024061E-2,3.349341E-2,7.915317E-3,-2.8430691E-2,1.4804319E-3,2.5323858E-2,-3.6540568E-2],"categories":[],"categories_nodes":[],"categories_segments":[],"categories_sizes":[],"default_left":[0,0,0,0,0,0,0,0,0,0,0,0,0,0,0],"id":78,"left_children":[1,3,5,7,9,11,13,-1,-1,-1,-1,-1,-1,-1,-1],"loss_changes":[8.363384E0,8.676306E0,2.0057569E0,9.97438E0,3.862113E0,2.0903435E0,5.4943705E0,0E0,0E0,0E0,0E0,0E0,0E0,0E0,0E0],"parents":[2147483647,0,0,1,1,2,2,3,3,4,4,5,5,6,6],"right_children":[2,4,6,8,10,12,14,-1,-1,-1,-1,-1,-1,-1,-1],"split_conditions":[1E0,1E0,1.3622849E0,-5.851984E-1,-5.105603E-1,1E0,2.403607E0,3.6773104E-3,-1.2024061E-2,3.349341E-2,7.915317E-3,-2.8430691E-2,1.4804319E-3,2.5323858E-2,-3.6540568E-2],"split_indices":[38,35,1,0,1,43,2,0,0,0,0,0,0,0,0],"split_type":[0,0,0,0,0,0,0,0,0,0,0,0,0,0,0],"sum_hessian":[7.9889777E2,7.4665125E2,5.2246517E1,4.472024E2,2.9944882E2,3.947986E1,1.2766658E1,2.9434848E2,1.528539E2,1.4707694E1,2.8474115E2,3.252247E1,6.9573927E0,7.614125E0,5.152533E0],"tree_param":{"num_deleted":"0","num_feature":"45","num_nodes":"15","size_leaf_vector":"1"}},{"base_weights":[-3.8937535E-3,5.9319343E-2,-1.3771358E-1,-2.5657447E-2,1.4007464E-1,-1.0337662E-1,-4.869227E-1,-6.798034E-3,5.972811E-3,2.5736932E-2,5.3823045E-3,-2.4671853E-2,-3.976752E-3,-3.863697E-2,-9.429769E-3],"categories":[],"categories_nodes":[],"categories_segments":[],"categories_sizes":[],"default_left":[0,0,0,0,0,0,0,0,0,0,0,0,0,0,0],"id":79,"left_children":[1,3,5,7,9,11,13,-1,-1,-1,-1,-1,-1,-1,-1],"loss_changes":[6.866056E0,3.7868598E0,3.072009E0,4.3296504E0,3.3809319E0,2.1773574E0,1.8190184E0,0E0,0E0,0E0,0E0,0E0,0E0,0E0,0E0],"parents":[2147483647,0,0,1,1,2,2,3,3,4,4,5,5,6,6],"right_children":[2,4,6,8,10,12,14,-1,-1,-1,-1,-1,-1,-1,-1],"split_conditions":[1E0,1E0,1E0,1E0,-7.1163774E-1,-1.4993294E0,1E0,-6.798034E-3,5.972811E-3,2.5736932E-2,5.3823045E-3,-2.4671853E-2,-3.976752E-3,-3.863697E-2,-9.429769E-3],"split_indices":[39,43,38,35,1,1,29,0,0,0,0,0,0,0,0],"split_type":[0,0,0,0,0,0,0,0,0,0,0,0,0,0,0],"sum_hessian":[8.097049E2,5.5030945E2,2.593955E2,2.684785E2,2.8183093E2,2.3735312E2,2.204238E1,1.5257037E2,1.1590812E2,2.126558E1,2.6056537E2,1.2537457E1,2.2481566E2,1.0445083E1,1.1597297E1],"tree_param":{"num_deleted":"0","num_feature":"45","num_nodes":"15","size_leaf_vector":"1"}},{"base_weights":[8.6674355E-3,-2.705505E-1,5.1738653E-2,4.7147855E-2,-4.3944016E-1,1.2122894E-1,-1.1752831E-1,1.29283145E-2,-3.902524E-3,-2.5284875E-2,-6.981191E-3,2.6645164E-3,2.3485573E-2,-2.0523557E-2,1.7961884E-3],"categories":[],"categories_nodes":[],"categories_segments":[],"categories_sizes":[],"default_left":[0,0,0,0,0,0,0,0,0,0,0,0,0,0,0],"id":80,"left_children":[1,3,5,7,9,11,13,-1,-1,-1,-1,-1,-1,-1,-1],"loss_changes":[9.592047E0,5.740254E0,8.140093E0,1.0234082E0,1.3138809E0,1.158202E1,9.076051E0,0E0,0E0,0E0,0E0,0E0,0E0,0E0,0E0],"parents":[2147483647,0,0,1,1,2,2,3,3,4,4,5,5,6,6],"right_children":[2,4,6,8,10,12,14,-1,-1,-1,-1,-1,-1,-1,-1],"split_conditions":[-1.1569993E0,-9.8965055E-1,3.5469943E-1,1E0,1E0,8.770402E-1,9.5514464E-1,1.29283145E-2,-3.902524E-3,-2.5284875E-2,-6.981191E-3,2.6645164E-3,2.3485573E-2,-2.0523557E-2,1.7961884E-3],"split_indices":[1,2,2,39,43,1,1,0,0,0,0,0,0,0,0],"split_type":[0,0,0,0,0,0,0,0,0,0,0,0,0,0,0],"sum_hessian":[7.954281E2,1.0559642E2,6.8983167E2,3.6901623E1,6.869479E1,4.8925742E2,2.0057428E2,1.332867E1,2.3572952E1,5.5699013E1,1.2995782E1,4.1040048E2,7.885694E1,6.837336E1,1.3220091E2],"tree_param":{"num_deleted":"0","num_feature":"45","num_nodes":"15","size_leaf_vector":"1"}},{"base_weights":[-2.1130577E-2,1.9337485E-2,-3.6952758E-1,-2.3388786E-2,2.2865221E-1,-2.6822358E-1,-7.056494E-1,2.703618E-3,-1.02935685E-2,1.7162746E-2,3.4319758E-4,-1.17502444E-4,-2.6972983E-2,-4.2406775E-2,-2.1255886E-2],"categories":[],"categories_nodes":[],"categories_segments":[],"categories_sizes":[],"default_left":[0,0,0,0,0,0,0,0,0,0,0,0,0,0,0],"id":81,"left_children":[1,3,5,7,9,11,13,-1,-1,-1,-1,-1,-1,-1,-1],"loss_changes":[1.1273548E1,6.4166284E0,2.644043E0,8.439533E0,3.0889258E0,4.725974E0,3.8521194E-1,0E0,0E0,0E0,0E0,0E0,0E0,0E0,0E0],"parents":[2147483647,0,0,1,1,2,2,3,3,4,4,5,5,6,6],"right_children":[2,4,6,8,10,12,14,-1,-1,-1,-1,-1,-1,-1,-1],"split_conditions":[1.1250569E0,1.0216166E0,1E0,-3.815966E-1,4.7353107E-1,1E0,1E0,2.703618E-3,-1.02935685E-2,1.7162746E-2,3.4319758E-4,-1.17502444E-4,-2.6972983E-2,-4.2406775E-2,-2.1255886E-2],